tree
version=v2
num_class=1
num_tree_per_iteration=1
label_index=0
max_feature_idx=11
objective=regression sqrt
feature_names=Column_0 Column_1 Column_2 Column_3 Column_4 Column_5 Column_6 Column_7 Column_8 Column_9 Column_10 Column_11
feature_infos=[0.12319230288267136:0.81832289695739746] [0.061385657638311386:0.80078029632568359] [0.071184150874614716:0.71743160486221313] [0.04388124868273735:0.83151006698608398] [0.030863333493471146:0.86912864446640015] [0.026969444006681442:0.88112169504165649] [0.023109445348381996:0.87791848182678223] [0.027375536039471626:0.85231286287307739] [0.016884444281458855:0.8779829740524292] [0.010049999691545963:0.4716983437538147] [0:0.13644516468048096] [0:0.14374624192714691]
tree_sizes=2597 2676 2681 2681 2687 2680 2683 2686 2692 2689 2711 2688 2709 2714 2704 2716 2720 2724 2719 2717 2726 2735 2717 2748 2716 2734 2729 2732 2754 2705 2746 2734 2738 2751 2736 2743 2745 2747 2748 2732 2709 2739 2713 2713 2732 2746 2726 2728 2705 2729 2699 2746 2747 2751 2742 2744 2754 2742 2743 2772 2754 2752 2684 2766 2722 2671 2733 2737 2700 2724 2735 2710 2761 2739 2713 2752 2756 2720 2718 2721 2725 2727 2688 2726 2734 2693 2738 2693 2764 2704 2712 2715 2715 2674 2728 2717 2770 2731 2687 2696 2739 2683 2739 2725 2732 2703 2744 2675 2695 2730 2726 2758 2697 2725 2699 2709 2679 2721 2726 2695 2672 2743 2720 2718 2700 2667 2719 2684 2710 2702 2719 2708 2707 2724 2729 2695 2726 2676 2712 2703 2735 2718 2733 2675 2702 2689 2678 2702 2740 2693 2703 2720 2704 2676 2721 2695 2648 2683 2720 2708 2686 2704 2724 2699 2716 2688 2697 2647 2715 2697 2696 2698 2635 2723 2719 2731 2717 2680 2676 2734 2705 2692 2675 2662 2692 2704 2689 2734 2728 2669 2684 2676 2674 2687 2722 2708 2699 2691 2718 2687 2700 2698 2702 2722 2662 2676 2705 2719 2691 2677 2726 2713 2711 2720 2716 2667 2733 2708 2683 2686 2680 2698 2667 2669 2710 2674 2711 2688 2669 2659 2682 2678 2691 2692 2649 2679 2681 2724 2725 2687 2669 2685 2654 2695 2687 2717 2672 2705 2710 2655 2676 2681 2686 2667 2705 2678 2678 2695 2704 2724 2677 2671 2704 2696 2682 2709 2691 2707 2666 2695 2681 2704 2700 2670 2700 2683 2680 2681 2679 2694 2718 2657 2706 2700 2711 2655 2674 2692 2688 2714 2701 2686 2673 2672 2660 2671 2675 2681 2657 2672 2676 2686 2689 2706 2708 2678 2670 2685 2707 2686 2698 2683 2708 2692 2679 2703 2667 2680 2686 2712 2687 2667 2707 2672 2689 2685 2666 2680 2681 2711 2668 2711 2690 2693 2693 2680 2660 2678 2687 2695 2698 2644 2655 2663 2723 2718 2654 2689 2721 2707 2677 2641 2702 2696 2659 2689 2669 2659 2686 2680 2698 2692 2690 2682 2694 2685 2704 2663 2669 2680 2654 2672 2675 2689 2677 2699 2661 2680 2698 2671 2687 2665 2675 2704 2676 2663 2715 2692 2653 2698 2666 2669 2669 2684 2690 2700 2661 2705 2679 2697 2655 2671 2680 2676 2686 2642 2683 2668 2706 2686 2659 2694 2700 2656 2707 2699 2706 2683 2690 2687 2664 2665 2669 2712 2669 2692 2692 2672 2644 2672 2691 2696 2696 2704 2681 2707 2659 2664 2669 2693 2706 2651 2677 2700 2678 2681 2676 2678 2671 2695 2666 2703 2721 2702 2699 2675 2661 2660 2667 2692 2673 2695 2717 2679 2697 2690 2707 2651 2713 2701 2700 2682 2697 2661 2713 2690 2639 2649 2654 2704 2694 2652 2670 2667 2650 2668 2653 2697 2642 2641 2651 2700 2652 2711 2730 2739 2713 2683 2651 2667 2676 2681 2680 2679 2673 2704 2689 2647 2681 2647 2668 2660 2679 2683 2675 2660 2680 2721 2683 2678 2673 2726 2672 2631 2707 2654 2684 2664 2657 2644 2661 2673 2699 2693 2673 2635 2685 2650 2678 2694 2692 2715 2702 2679 2675 2674 2665 2677 2703 2698 2653 2683 2708 2668 2695 2730 2675 2661 2668 2674 2706 2658 2694 2675 2693 2693 2659 2688 2702 2672 2688 2686 2679 2679 2652 2708 2721 2712 2680 2660 2657 2658 2675 2700 2693 2703 2673 2687 2698 2694 2676 2653 2677 2676 2685 2694 2689 2681 2678 2684 2664 2662 2706 2673 2686 2683 2699 2675 2649 2685 2680 2692 2718 2670 2684 2669 2702 2677 2698 2670 2672 2702 2684 2677 2656 2643 2667 2682 2661 2670 2702 2674 2660 2701 2702 2671 2691 2698 2666 2646 2721 2720 2665 2698 2688 2636 2686 2704 2683 2686 2668 2672 2665 2659 2659 2669 2675 2690 2659 2662 2677 2676 2707 2692 2681 2664 2693 2677 2664 2688 2691 2668 2675 2689 2700 2725 2680 2678 2720 2698 2661 2686 2694 2649 2686 2694 2692 2663 2694 2700 2692 2697 2700 2710 2676 2686 2678 2685 2733 2646 2663 2683 2695 2712 2688 2691 2688 2667 2694 2718 2677 2699 2673 2684 2669 2682 2686 2670 2696 2706 2731 2679 2665 2697 2667 2686 2695 2691 2683 2676 2678 2645 2680 2703 2692 2668 2696 2697 2667 2695 2677 2679 2690 2684 2673 2695 2661 2689 2647 2654 2674 2671 2698 2661 2669 2690 2689 2705 2679 2646 2730 2659 2669 2686 2645 2686 2676 2660 2711 2674 2719 2663 2687 2699 2666 2712 2681 2655 2677 2682 2693 2667 2683 2681 2690 2666 2660 2708 2714 2678 2688 2666 2686 2681 2673 2688 2668 2662 2675 2658 2679 2666 2678 2656 2694 2689 2683 2665 2670 2668 2666 2711 2690 2679 2666 2674 2708 2665 2690 2659 2674 2683 2684 2668 2672 2703 2678 2682 2665 2671 2695 2655 2696 2712 2696 2727 2691 2712 2680 2705 2664 2670 2666 2698 2687 2682 2687 2659 2685 2715 2707 2693 2662 2686 2680 2689 2686 2673 2664 2664 2713 2711 2676 2671 2673 2722 2680 2708 2684 2686 2660 2724 2713 2686 2712 2675 2640 2687 2683 2673 2669 2677 2665 2673 2672 2690 2671 2684 2675 2674 2673 2716 2691 2700 2729 2701 2684 2682 2697 2682 2645 2666 2687 2688 2681 2670 2667 2670 2690 2684 2661 2662 2671 2678 2674 2671 2683 2714 2666 2677 2682 2672 2664 2684 2698 2715 2710 2673 2726 2662 2682 2710 2716 2696 2647 2694 2705 2672 2692 2684 2677 2720 2683 2725 2704 2716 2711 2718 2687 2685 2697 2680 2679 2692 2696 2691 2703 2686 2650 2684 2691 2676 2684 2723 2680 2662 2711 2678 2681 2665 2695 2717 2723 2709 2669 2691 2714 2699 2704 2705 2650 2716 2684 2703 2686 2716 2678 2684 2692 2680 2716 2709 2688 2703 2678 2678 2685 2688 2684 2651

Tree=0
num_leaves=32
num_cat=0
split_feature=0 9 9 9 9 6 10 2 9 9 2 9 10 11 0 0 11 4 9 0 9 9 2 0 2 2 8 0 8 2 0
split_gain=154492 30195.7 18415.2 6275.52 5792.58 2960.41 1976.47 1539.82 1491.73 1053.73 926.054 626.933 589.968 569.34 457.005 411.928 408.593 293.1 278.873 238.614 236.233 235.459 233.771 227.702 223.594 217.021 210.568 239.688 162.491 187.173 158.787
threshold=0.51331600546836864 0.27040916681289678 0.058735683560371406 0.34053871035575872 0.19830458611249926 0.28129120171070104 0.067549880594015135 0.43323439359664923 0.035676388069987304 0.29569281637668615 0.58762973546981823 0.17686644941568377 0.032894484698772437 0.088944412767887129 0.47042916715145117 0.60808789730072033 0.10108990967273714 0.5132558047771455 0.081202566623687758 0.54791435599327099 0.31488248705863958 0.23981064558029178 0.090499706566333785 0.7232356369495393 0.43798467516899114 0.40234296023845678 0.60823336243629467 0.71248838305473339 0.38958102464675909 0.42538027465343481 0.61215668916702282
decision_type=2 2 2 2 2 2 2 2 2 2 2 2 2 2 2 2 2 2 2 2 2 2 2 2 2 2 2 2 2 2 2
left_child=2 4 8 9 11 18 7 15 22 13 -5 25 -9 24 -7 19 20 30 -4 -6 26 -19 -1 -12 -3 -2 -11 -28 -13 -30 -14
right_child=1 3 5 10 6 14 -8 12 -10 16 23 28 17 -15 -16 -17 -18 21 -20 -21 -22 -23 -24 -25 -26 -27 27 -29 29 -31 -32
leaf_value=3.6059848689692 3.901708782613782 3.9722946192875241 3.7786718279276319 4.0772335414465992 3.9362075712826226 3.8545286256053926 4.0640061130161893 3.9852480097940712 3.7315793724671922 4.0612172355327498 4.0873884604962862 3.982822721842723 4.0158039869533306 4.1018475222926973 3.8917946883011925 4.0211133658176417 4.102186390754345 3.9883641802131513 3.8137299277674317 3.9679783683943848 4.0591161386836809 4.0114663370855563 3.6600682671492897 4.1173193837099511 4.0300395805579621 3.9309795452186873 4.0325227865566706 4.0554197639422789 3.9334862178937509 3.9628661243239209 4.0735560118270975
leaf_count=931 5078 684 3803 13764 2800 6640 3888 15716 3730 6379 3094 1418 878 1104 6524 1310 1664 5574 5625 15180 23553 21158 5646 14239 34106 5054 13313 6963 4953 3857 1040
internal_value=0 0.320259 -2.01279 0.648893 -0.124118 -1.50745 0.0168196 -0.0254565 -3.12046 0.512121 1.03491 -0.591677 0.0770982 0.380399 -1.2011 -0.261327 0.603269 0.162506 -1.93519 -0.300771 0.587112 0.135413 -3.40695 1.18869 0.357964 -0.767984 0.522633 0.47278 -0.417025 -0.467592 0.540111
internal_count=239666 206767 32899 118863 87904 22592 67544 63656 10307 87766 31097 20360 44366 35894 13164 19290 51872 28650 9428 17980 50208 26732 6577 17333 34790 10132 26655 20276 10228 8810 1918
shrinkage=1


Tree=1
num_leaves=32
num_cat=0
split_feature=0 9 9 9 9 8 11 2 9 9 11 0 10 9 0 0 10 0 8 2 11 4 9 0 10 9 9 0 5 2 11
split_gain=125175 25115.3 14201.3 5294.47 4764.83 2165.76 1612.42 1327.78 1222.71 1159.24 645.792 542.202 456.598 409.89 346.397 339.53 323.172 273.137 250.938 250.675 240.684 237.406 232.545 227.196 225.19 192.766 177.01 167.299 167.297 163.822 158.386
threshold=0.50794416666030895 0.26818966865539556 0.058735683560371406 0.34808611869812017 0.193745993077755 0.25281465053558355 0.066709600389003768 0.43418954312801367 0.030842708423733715 0.30663838982582098 0.088944412767887129 0.71962761878967296 0.032480841502547271 0.15753589570522311 0.45520384609699255 0.60808789730072033 0.036128962412476547 0.69443419575691234 0.58173891901969921 0.41880728304386144 0.10620985552668573 0.5132558047771455 0.08693194761872293 0.55658811330795299 0.005094722146168352 0.23366291821002963 0.040923781692981727 0.66454383730888378 0.45950420200824743 0.44187422096729284 0.052062489092350013
decision_type=2 2 2 2 2 2 2 2 2 2 2 2 2 2 2 2 2 2 2 2 2 2 2 2 2 2 2 2 2 2 2
left_child=2 4 8 9 13 22 7 15 24 10 16 -5 -9 -2 -7 23 29 18 27 30 -11 -14 -4 -6 -1 -23 -10 -18 -25 -3 -15
right_child=1 3 5 11 6 14 -8 12 26 20 -12 -13 21 19 -16 -17 17 -19 -20 -21 -22 25 -24 28 -26 -27 -28 -29 -30 -31 -32
leaf_value=-0.28230648816309195 -0.083483467033767134 -0.034313135903794319 -0.18985394954304946 0.077100224334731474 -0.046730516286404011 -0.13081032869876197 0.063073025680869879 -0.0083276065421418726 -0.26725522277758063 0.058153234994344098 0.096400526034801828 0.10745165018383306 0.046426124662181052 -0.063680519662152199 -0.096556380954815488 0.02153861257643 0.039874978076927324 0.050391157332980809 0.026208483159777099 -0.03372178566535227 0.10608823405211742 -0.0085692453343139113 -0.15843416514142586 0.026808290936640423 -0.32538620011715569 0.014789076726546488 -0.22719233061270741 0.075434253230500181 -0.024234618700964397 0.019139134874411833 0.0083422589683963821
leaf_count=1760 4658 640 4750 8868 4907 4976 3751 14664 1805 39504 1778 17502 2031 7667 7259 1484 12202 12832 20290 5969 1076 4239 4673 672 3907 21214 2835 1484 14443 5508 318
internal_value=0 0.283514 -1.84221 0.575879 -0.13008 -1.38239 -0.00640546 -0.0439506 -2.80841 0.466163 0.371204 0.972447 0.0592165 -0.57798 -1.10488 -0.24614 0.3513 0.379612 0.332667 -0.49224 0.594243 0.135243 -1.74272 -0.280348 -3.12007 0.108989 -2.42777 0.437307 -0.219653 0.135748 -0.608122
internal_count=239666 207701 31965 121684 86017 21658 67405 63654 10307 95314 54734 26370 42148 18612 12235 21506 52956 46808 33976 13954 40580 27484 9423 20022 5667 25453 4640 13686 15115 6148 7985
shrinkage=0.1


Tree=2
num_leaves=32
num_cat=0
split_feature=0 9 9 2 9 6 10 9 2 9 11 9 10 0 0 0 0 0 10 4 11 2 0 4 8 2 8 0 9 1 0
split_gain=101461 19368 12656.2 4005.65 3777.75 1830.85 1336.8 1327 1018.62 955.296 508.944 462.845 392.24 348.415 300.134 269.976 249.27 241.274 204.953 198.72 188.168 184.238 176.619 176.797 176.319 170.279 166.882 198.573 159.827 148.358 138.996
threshold=0.51814529299736034 0.27259638905525213 0.06455640867352487 0.57389315962791454 0.19972958415746692 0.30238951742649084 0.067950416356325163 0.035676388069987304 0.43701429665088659 0.31344199180603033 0.093298818916082396 0.17871602624654773 0.033167269080877311 0.71180081367492687 0.61625102162361156 0.47750231623649603 0.72031825780868541 0.38852769136428839 0.036494323983788497 0.51904064416885387 0.10947782173752786 0.09555284678936006 0.56902611255645763 0.48750694096088415 0.39295578002929693 0.4099819958209992 0.58984106779098522 0.67519924044609081 0.24655750393867495 0.64150172472000133 0.61519405245780956
decision_type=2 2 2 2 2 2 2 2 2 2 2 2 2 2 2 2 2 2 2 2 2 2 2 2 2 2 2 2 2 2 2
left_child=2 4 7 9 11 17 8 21 14 10 16 25 -10 -5 22 -7 18 -4 -3 30 -11 -1 -6 -24 -13 -2 27 -20 -21 -28 -14
right_child=1 3 5 13 6 15 -8 -9 12 20 -12 24 19 -15 -16 -17 -18 -19 26 28 -22 -23 23 -25 -26 -27 29 -29 -30 -31 -32
leaf_value=-0.30264778149352306 -0.071820599754087042 0.012874856118108869 -0.16175910857367007 0.065303973374973401 -0.034706744767824559 -0.10678716595298306 0.058930374356875918 -0.20639747616753021 -0.0049570068436846316 0.056033184046617751 0.090673639952818658 0.0013230625233229469 0.018324066380460285 0.098188320014941238 0.035913100261551319 -0.077042672501222806 0.05436595945225256 -0.13095450732494349 0.039988717865057422 -0.00050620238902551599 0.099563028139960749 -0.26551470567799584 0.023352692309650071 -0.018186168591698523 -0.036400612127683106 -0.045763136519846301 0.02326373951761937 0.081408229796839704 0.017153768704430555 0.037017558448156261 0.071060663161764653
leaf_count=1865 6087 4735 5812 3940 6612 5793 3980 4684 15372 35056 1688 1445 979 17679 961 6448 5922 4520 13170 6925 1022 4712 1115 12642 8691 4265 14606 1269 19713 16937 1021
internal_value=0 0.263796 -1.60482 0.533675 -0.0848649 -1.17284 0.0266363 -2.47075 -0.00763696 0.444758 0.365644 -0.462123 0.0792865 0.921952 -0.186985 -0.911191 0.349518 -1.48283 0.326848 0.148453 0.572663 -2.76044 -0.212751 -0.148195 -0.310227 -0.61085 0.347248 0.43629 0.125628 0.306488 0.452461
internal_count=239666 205832 33834 116024 89808 22573 69320 11261 65340 94405 58327 20488 44010 21619 21330 12241 56639 10332 50717 28638 36078 6577 20369 13757 10136 10352 45982 14439 26638 31543 2000
shrinkage=0.1


Tree=3
num_leaves=32
num_cat=0
split_feature=0 9 9 9 9 9 11 2 9 2 9 10 0 11 0 10 2 2 4 9 10 0 0 9 8 9 0 0 0 8 0
split_gain=82247.4 16948.9 8916.47 3923.3 2975.22 1534.09 1034.55 826.842 780.647 613.843 549.824 413.416 279.248 277.368 267.039 264.038 244.693 214.431 191.062 195.154 185.2 166.208 160.407 155.567 140.175 180.7 218.292 133.537 124.261 122.059 119.372
threshold=0.50266388058662426 0.26283910870552069 0.052952272817492492 0.33497387170791632 0.18900249898433688 0.11016458272933961 0.065963622182607665 0.42938692867755895 0.28927645087242132 0.58432072401046764 0.030842708423733715 0.079127896577119841 0.60215076804161083 0.10357444733381273 0.43980625271797186 0.032344747334718711 0.41267395019531256 0.43890543282032018 0.50713786482810985 0.21976519376039508 0.0058187011163681754 0.7292349934577943 0.54791435599327099 0.081202566623687758 0.60682350397109996 0.31774199008941656 0.71392378211021434 0.68002024292945873 0.59690687060356151 0.54901918768882763 0.65575030446052562
decision_type=2 2 2 2 2 2 2 2 2 2 2 2 2 2 2 2 2 2 2 2 2 2 2 2 2 2 2 2 2 2 2
left_child=2 4 10 8 16 23 7 12 11 -5 20 17 22 24 -7 -9 -2 -3 28 -20 -1 -11 -6 -4 27 26 -26 -10 -17 30 -19
right_child=1 3 5 9 6 14 -8 15 13 21 -12 -13 -14 -15 -16 18 -18 29 19 -21 -22 -23 -24 -25 25 -27 -28 -29 -30 -31 -32
leaf_value=-0.23231897344881178 -0.061119056764310654 -0.015862529789950262 -0.15978839043848853 0.059836048070174203 -0.044695887646915247 -0.11287376824471401 0.049153573526695166 -0.0086427960459728084 0.046187312159433364 0.071984653817092972 -0.20340858192449024 0.074115350393149801 0.017398926236657963 0.08597839958344447 -0.082255089634178713 0.0089849005200883653 -0.036618325051940015 0.029468565719669361 -0.021654188532469067 0.008483137258502917 -0.26881019844562698 0.092705889698520449 -0.021962885453262398 -0.13405872122907134 0.0275738283081889 0.046735640564835569 0.045980416090480453 0.077511136353367704 0.058219789293582069 0.019525224766295216 0.069622029119024154
leaf_count=2450 9775 1539 4758 16581 3982 4483 3519 15623 9276 5563 3684 1508 1539 1379 7812 904 6992 4843 2403 20301 3217 12727 14076 4643 19983 15895 9509 1595 1184 27049 874
internal_value=0 0.225991 -1.51854 0.451465 -0.13433 -1.16671 -0.0354427 -0.0663438 0.344653 0.737708 -2.33483 0.228704 -0.234909 0.416699 -0.934193 0.0153926 -0.50902 0.206177 0.0795562 0.0529339 -2.53034 0.864034 -0.269758 -1.47081 0.405838 0.381408 0.335086 0.507832 0.369035 0.223312 0.356071
internal_count=239666 208619 31047 128321 80298 21696 63531 60012 93450 34871 9351 35813 19597 57637 12295 40415 16767 34305 24792 22704 5667 18290 18058 9401 56258 45387 29492 10871 2088 32766 5717
shrinkage=0.1


Tree=4
num_leaves=32
num_cat=0
split_feature=0 9 9 9 9 9 11 9 2 2 9 11 9 4 11 0 2 0 2 10 9 8 0 0 0 9 11 8 9 0 0
split_gain=66667.2 14119.8 6827.95 3340.69 2397.14 1082.85 746.904 715.233 526.524 520.643 445.358 375.827 322.733 264.035 243.793 210.793 179.941 169.738 165.881 155.292 151.923 150.764 141.515 136.874 135.607 126.88 116.782 115.844 163.355 187.728 131.193
threshold=0.49698323011398321 0.25962686538696295 0.052952272817492492 0.33374096453189855 0.1951955854892731 0.11016458272933961 0.066709600389003768 0.28744263947010046 0.58080443739891063 0.42938692867755895 0.030842708423733715 0.08125245571136476 0.15753589570522311 0.50713786482810985 0.10947782173752786 0.60510456562042247 0.43798467516899114 0.43980625271797186 0.4199796617031098 0.005094722146168352 0.22939193248748782 0.51941189169883739 0.71537846326828014 0.54791435599327099 0.59690687060356151 0.081202566623687758 0.052435835823416717 0.60399737954139721 0.30934999883174902 0.70456853508949291 0.68002024292945873
decision_type=2 2 2 2 2 2 2 2 2 2 2 2 2 2 2 2 2 2 2 2 2 2 2 2 2 2 2 2 2 2 2
left_child=2 4 10 7 12 25 9 11 -5 15 19 16 -2 24 27 23 -3 -7 26 -1 -15 -18 -10 -6 -11 -4 -14 30 29 -29 -9
right_child=1 3 5 8 6 17 -8 14 22 13 -12 -13 18 20 -16 -17 21 -19 -20 -21 -22 -23 -24 -25 -26 -27 -28 28 -30 -31 -32
leaf_value=-0.2030666595189409 -0.06371245640403031 -0.013702918807046702 -0.14382193972890508 0.053028960813989535 -0.040612973847660667 -0.10158639262423515 0.045003557199544603 0.040842279393616267 0.056042242138339339 0.009807079887559144 -0.18306771932042384 0.068977843400911676 -0.046036563278263602 -0.011543005407216249 0.084814017470658684 0.023532428729956281 0.051862286512704817 -0.076578170928908298 -0.022729938325266069 -0.23884110165688888 0.0030560022391798373 0.017444047067317697 0.080822618686728492 -0.018142455129454144 0.053070639789185928 -0.12055490412721129 0.011889320163015091 0.019948830638870638 0.039413491493508181 0.038749938890395345 0.071980595314896617
leaf_count=1760 5437 1794 4757 16790 3420 4483 3044 9832 2683 1565 3684 1457 9026 10434 1045 1044 1325 6878 6204 3907 22498 32232 16338 13072 1349 4620 362 13042 25056 8959 1569
internal_value=0 0.199841 -1.39194 0.398578 -0.139163 -1.07206 -0.0317657 0.301617 0.65935 -0.0592395 -2.10135 0.192048 -0.427335 0.00983501 0.369394 -0.200437 0.171534 -0.864463 -0.354181 -2.27731 -0.0156947 0.188031 0.773272 -0.228022 0.298354 -1.32358 -0.438029 0.360836 0.338925 0.276048 0.451275
internal_count=239666 209577 30089 132122 77455 20738 56426 96311 35811 53382 9351 36808 21029 35846 59503 17536 35351 11361 15592 5667 32932 33557 19021 16492 2914 9377 9388 58458 47057 22001 11401
shrinkage=0.1


Tree=5
num_leaves=32
num_cat=0
split_feature=0 9 9 9 9 0 9 10 11 11 9 9 5 0 2 0 4 0 2 8 0 2 9 2 8 2 1 10 0 0 1
split_gain=54092 9918.23 7357.97 2022.96 2010.31 999.623 929.909 798.283 535.186 345.42 327.874 302.055 264.978 249.842 226.056 213.652 349.428 206.336 163.195 143.813 127.575 120.734 120.238 118.261 116.656 147.747 110.823 109.66 108.225 103.996 101.341
threshold=0.52674743533134472 0.27682322263717657 0.070010978728532805 0.34808611869812017 0.20532557368278506 0.4246839731931687 0.040923781692981727 0.034207319840788848 0.075245521962642684 0.099004622548818602 0.18235577642917636 0.30197584629058843 0.44556066393852239 0.73330166935920726 0.4323353916406632 0.62137916684150707 0.53545206785202037 0.48480641841888433 0.09555284678936006 0.62535887956619274 0.72771531343460094 0.43798467516899114 0.32350508868694311 0.40702152252197271 0.58173891901969921 0.49534916877746588 0.51047924160957348 0.0064408087637275466 0.66790914535522472 0.68559420108795177 0.32465714216232305
decision_type=2 2 2 2 2 2 2 2 2 2 2 2 2 2 2 2 2 2 2 2 2 2 2 2 2 2 2 2 2 2 2
left_child=2 4 6 9 10 -4 18 14 15 11 23 20 26 -5 -6 -9 -17 -7 -1 -13 24 -14 -21 -2 25 -3 -12 -20 -18 -26 -8
right_child=1 3 5 13 7 17 30 8 -10 -11 12 19 21 -15 -16 16 28 -19 27 22 -22 -23 -24 -25 29 -27 -28 -29 -30 -31 -32
leaf_value=-0.22413259412504072 -0.052398808739301909 0.026028010514248735 -0.10814131033378555 0.055576296885406655 -0.022048792248598986 -0.077001461523317397 -0.1370962959358108 0.001503206235570094 0.052509797063729435 0.066060542387480867 -0.012026502219783707 0.048215284025301418 -0.032210643745036995 0.075150267647288507 -0.0027984401758739414 0.055767007494891989 0.0073025120486616586 -0.053506070868196066 -0.17492854035286248 0.028801619917781941 0.053279594695950686 -0.0089568968492493035 0.040388801298995997 -0.031492244751939499 0.013158816543954448 0.055595771144831711 0.041458325158915864 -0.20297446633296157 0.023297778563871725 0.026196479762266578 -0.18658771690583126
leaf_count=1865 5776 7845 8531 14559 8939 7468 4281 17866 3139 2975 660 8890 6707 11811 19208 2029 13804 7483 2597 19887 1480 3347 16292 5090 12425 2154 938 3010 6099 12053 458
internal_value=0 0.198732 -1.13569 0.401802 -0.0407181 -0.808273 -1.76531 0.0417655 0.127567 0.325948 -0.3011 0.313661 -0.184574 0.643434 -0.0891202 0.096212 0.162342 -0.65242 -1.98508 0.368197 0.245304 -0.244694 0.340195 -0.426055 0.232963 0.323975 0.193682 -1.89984 0.12204 0.195786 -1.41879
internal_count=239666 203973 35693 110371 93602 23482 12211 71084 42937 84001 22518 81026 11652 26370 28147 39798 21932 14951 7472 45069 35957 10054 36179 10866 34477 9999 1598 5607 19903 24478 4739
shrinkage=0.1


Tree=6
num_leaves=32
num_cat=0
split_feature=0 9 9 9 2 9 11 9 10 9 11 5 9 0 0 2 0 4 0 2 0 8 2 2 2 1 1 9 10 8 9
split_gain=43814.5 8037.97 5970.28 1690.66 1631.9 969.878 604.988 591.623 432.574 349.588 330.767 287.092 263.832 257.259 175.889 171.479 170.518 259.232 159.337 132.134 120.648 116.228 116.209 108.407 98.7029 88.5142 85.8561 87.9645 85.2233 84.1935 104.571
threshold=0.52674743533134472 0.27822569012641912 0.06455640867352487 0.21160186827182773 0.57389315962791454 0.11549583449959756 0.075245521962642684 0.035676388069987304 0.034048656001687057 0.18235577642917636 0.095043435692787184 0.45422893762588507 0.30800187587738043 0.46276743710041052 0.56902611255645763 0.41765178740024572 0.65947234630584728 0.57705107331275951 0.71110373735427868 0.44377022981643682 0.72545373439788829 0.58984106779098522 0.090499706566333785 0.49911667406558996 0.41267395019531256 0.63447058200836193 0.3016952276229859 0.046778203919529922 0.005094722146168352 0.44513095915317541 0.23981064558029178
decision_type=2 2 2 2 2 2 2 2 2 2 2 2 2 2 2 2 2 2 2 2 2 2 2 2 2 2 2 2 2 2 2
left_child=2 3 7 9 10 -4 8 22 15 24 12 14 20 -7 -11 -5 29 -18 -6 -13 21 23 -1 -3 -2 -23 27 -9 -24 -10 -31
right_child=1 4 5 6 18 13 -8 26 16 11 -12 19 -14 -15 -16 -17 17 -19 -20 -21 -22 25 28 -25 -26 -27 -28 -29 -30 30 -32
leaf_value=-0.21453072417619434 -0.046066664203557178 0.025245743915294216 -0.10178227751066847 -0.0271817946302115 0.04253419944706216 -0.075917480011937266 0.048297349072417957 -0.14754137142169099 0.029917112582091135 -0.012391194134462991 0.056561470853790763 -0.027309605118953376 0.034742489827942341 -0.049843021196187859 0.038421929194500652 -0.0038762892170289285 0.070134765677294916 0.015574139287836837 0.065066132495237197 -0.0050715241226861833 0.044001106662226758 0.010282441242802471 -0.157417446417353 0.048360111169509154 -0.026581194562295907 0.022381208370320614 -0.17311523031947532 -0.11805328178948071 -0.18435107973516812 -0.00521379854024576 0.0082559835176421043
leaf_count=931 6560 9278 8476 3711 3810 6169 3092 1745 1389 1292 4575 9677 40112 9787 1441 21154 972 8366 17807 3691 2667 8933 1667 2597 4306 18716 532 2407 3979 7807 22020
internal_value=0 0.178859 -1.02212 -0.0327528 0.365082 -0.744456 0.0507329 -1.62453 0.0303033 -0.244852 0.303906 -0.151318 0.289358 -0.599241 0.144005 -0.0735454 0.0939764 0.212534 0.610949 -0.211695 0.234152 0.220261 -1.81797 0.303007 -0.383449 0.184723 -1.35293 -1.30447 -1.76399 0.0585109 0.0473037
internal_count=239666 203973 35693 95478 108495 24432 68511 11261 65419 26967 86878 16101 82303 15956 2733 24865 40554 9338 21617 13368 42191 39524 6577 11875 10866 27649 4684 4152 5646 31216 29827
shrinkage=0.1


Tree=7
num_leaves=32
num_cat=0
split_feature=1 9 9 9 9 9 10 9 11 9 9 4 10 2 0 0 0 4 10 0 0 2 8 11 8 10 1 0 9 0 4
split_gain=35543.7 6839.08 4452.55 1430.72 1398.35 777.192 520.069 379.386 348.591 260.526 246.966 194.417 192.487 170.731 169.487 153.158 153.062 261.221 141.666 134.665 132.586 126.6 120.002 116.203 112.582 112.337 94.5102 92.4865 86.9521 83.4822 87.866
threshold=0.4800268709659577 0.27546136081218725 0.058735683560371406 0.20532557368278506 0.35345152020454412 0.11549583449959756 0.034048656001687057 0.026954679749906067 0.078165441751480116 0.3192822933197022 0.17087291926145556 0.45357804000377661 0.087984822690486922 0.41880728304386144 0.45520384609699255 0.72771531343460094 0.61417752504348766 0.52852362394332897 0.036494323983788497 0.71610763669013988 0.55844670534133922 0.4323353916406632 0.66151148080825817 0.0077619280200451621 0.59121045470237743 0.005094722146168352 0.26354488730430609 0.67835915088653576 0.040923781692981727 0.67116373777389537 0.57705107331275951
decision_type=2 2 2 2 2 2 2 2 2 2 2 2 2 2 2 2 2 2 2 2 2 2 2 2 2 2 2 2 2 2 2
left_child=2 3 7 10 9 -4 13 25 16 12 -2 20 18 -5 -7 -6 -8 -18 -3 24 -12 -13 -11 -9 27 -1 28 -20 -25 -19 -31
right_child=1 4 5 6 15 14 8 23 -10 22 11 21 -14 -15 -16 -17 17 29 19 -21 -22 -23 -24 26 -26 -27 -28 -29 -30 30 -32
leaf_value=-0.14955203660818719 -0.039737178467259569 0.0048434713465309127 -0.093194030667390987 -0.024195927842198595 0.044390372297465307 -0.070127604586220235 -0.00035157526677959285 -0.12006540207067717 0.044222998687744472 0.042973978590077982 -0.018093805306615463 -0.029625197079543281 0.05194204393686315 -0.003970702763918187 -0.047532449302661567 0.060747533736704586 0.044701732230667368 0.0056961874568016903 0.026343181898594727 0.034088357673974681 0.03380259771035881 -0.010026229376041543 0.029260035039635285 -0.16044847067137055 0.017890959172331303 -0.18197063025494137 -0.18946580720317163 0.05704495020212598 -0.11708164707417007 0.073623028260413309 0.017108470988660644
leaf_count=1639 7978 4502 9430 5126 9824 5350 15125 3278 2772 10724 879 8886 2212 22467 8748 13717 2279 16646 12200 9557 1119 5239 15754 942 32710 3073 468 1067 908 292 4755
internal_value=0 0.15614 -0.949824 -0.0435328 0.322546 -0.709714 0.0293071 -1.49787 0.0995513 0.265059 -0.253466 -0.182259 0.229718 -0.0772798 -0.56107 0.539215 0.0752552 0.124955 0.219044 0.232875 0.109713 -0.223559 0.348144 -1.32183 0.210424 -1.70694 -1.49319 0.288124 -1.39164 0.0911204 0.203782
internal_count=239666 205830 33836 93563 112267 23528 69462 10308 41869 88726 24101 16123 62248 27593 14098 23541 39097 23972 60036 55534 1998 14125 26478 5596 45977 4712 2318 13267 1850 21693 5047
shrinkage=0.1


Tree=8
num_leaves=32
num_cat=0
split_feature=0 9 9 9 9 9 10 10 2 2 11 9 8 4 0 9 0 0 8 9 2 5 10 0 10 9 2 0 10 1 0
split_gain=28840.2 6178.83 2997.88 1535.7 990.058 575.335 344.01 333.052 280.966 258.95 253.802 189.27 168.687 157.967 145.282 142.696 141.855 136.937 132.869 125.512 113.184 180.343 108.061 104.952 92.5024 90.2257 90.0511 84.7165 83.2054 71.7336 71.2296
threshold=0.49698323011398321 0.25728833675384527 0.046778203919529922 0.33136709034442907 0.18589583039283755 0.098416250199079527 0.035302817821502692 0.0656753145158291 0.44187422096729284 0.58080443739891063 0.095043435692787184 0.29383398592472082 0.53586286306381237 0.51904064416885387 0.67918556928634655 0.023606041446328167 0.62235549092292797 0.41690817475318914 0.61628526449203502 0.14947264641523364 0.38914185762405401 0.45950420200824743 0.0064408087637275466 0.71610763669013988 0.045856744050979621 0.2128683999180794 0.43890543282032018 0.64721685647964489 0.005094722146168352 0.24932573735713962 0.71462187170982372
decision_type=2 2 2 2 2 2 2 2 2 2 2 2 2 2 2 2 2 2 2 2 2 2 2 2 2 2 2 2 2 2 2
left_child=2 4 15 6 19 -4 26 8 16 -5 11 12 27 -10 24 28 20 -7 -13 -2 -6 -22 -17 -20 -14 -23 -3 -8 -1 -24 -11
right_child=1 3 5 9 7 17 10 -9 13 30 -12 18 14 -15 -16 22 -18 -19 23 -21 21 25 29 -25 -26 -27 -28 -29 -30 -31 -32
leaf_value=-0.13783302342435641 -0.04840850285885602 -0.025587094901968362 -0.092193532533783179 0.034620840819522145 -0.029650303497283509 -0.075748963193369712 0.02522736513952786 0.027169540113640752 0.021887940433233367 0.036038580765567679 0.048806857110460261 0.034362921338976109 0.014493024462341651 -0.0012841258882219082 0.022267351741679292 -0.10698508501675996 0.027188164365046993 -0.052689829437739158 0.017566099452193808 -0.027255494158761235 0.019803926775696812 -0.022176390176801983 -0.13513659720444657 0.029030517781293452 0.0020940290782219414 -0.0089556525281358525 0.00438674450606892 0.056689977427152795 -0.16838832241198998 -0.18212569892162184 0.053653228017788317
leaf_count=1444 3639 1152 8496 18534 3888 3509 3337 3247 3371 2667 3199 10510 12170 23115 10925 1375 870 9679 22975 12240 1734 8018 2892 12239 11901 14492 7714 1151 2328 366 16489
internal_value=0 0.13144 -0.915511 0.259109 -0.099489 -0.718993 0.192709 -0.039595 -0.0578108 0.430476 0.211542 0.20116 0.150442 0.0166509 0.127035 -1.42251 -0.125813 -0.588253 0.244957 -0.321031 -0.138112 -0.112711 -1.30494 0.215507 0.0836281 -0.136648 0.00492106 0.332963 -1.56691 -1.40415 0.512008
internal_count=239666 209577 30089 134963 74614 21684 97273 58735 55488 37690 88407 85208 39484 26486 34996 8405 29002 13188 45724 15879 28132 24244 4633 35214 24071 22510 8866 4488 3772 3258 19156
shrinkage=0.1


Tree=9
num_leaves=32
num_cat=0
split_feature=2 9 9 2 2 0 9 9 11 4 11 10 9 9 0 0 10 1 0 9 0 8 2 2 4 0 0 4 11 1 11
split_gain=23419.2 4108.7 3478.55 922.322 844.279 501.862 404.746 330.489 270.314 243.675 188.915 180.328 161.632 127.839 120.606 101.081 97.3549 96.5062 92.1609 88.5676 87.3376 105.493 86.6505 85.73 77.1704 105.107 80.7308 86.6738 69.9003 112.118 69.8606
threshold=0.38693098723888403 0.28161208331584936 0.070010978728532805 0.44187422096729284 0.57091191411018383 0.41690817475318914 0.040923781692981727 0.18416389077901843 0.078919235616922392 0.47207038104534155 0.10947782173752786 0.031706849113106735 0.16667734831571582 0.32086479663848883 0.62235549092292797 0.70378145575523388 0.015200245194137098 0.5233818292617799 0.56209614872932445 0.21747080236673358 0.73078691959381115 0.59837800264358532 0.50617036223411571 0.09555284678936006 0.52577921748161327 0.63073074817657482 0.67439085245132457 0.59231019020080578 0.0077619280200451621 0.3016952276229859 0.004611547803506256
decision_type=2 2 2 2 2 2 2 2 2 2 2 2 2 2 2 2 2 2 2 2 2 2 2 2 2 2 2 2 2 2 2
left_child=2 3 6 7 10 -4 23 16 11 17 13 -5 -7 20 19 -6 -2 -9 -14 -11 21 22 -3 -1 25 -13 -26 -28 -8 -30 -25
right_child=1 4 5 8 15 12 28 9 -10 14 -12 24 18 -15 -16 -17 -18 -19 -20 -21 -22 -23 -24 30 26 -27 27 -29 29 -31 -32
leaf_value=-0.14941184389097803 -0.061718608157036947 0.021435977296629789 -0.072883996519877273 -0.0050045371821293115 0.028027656841323991 -0.050502700070575168 -0.08157153644634485 -0.0010941673911111641 0.042352778950189969 -0.019183502317144857 0.055222462161351162 0.011777308635026905 -0.034011087057325737 0.027749318370568116 0.022662019011143092 0.047210154490852127 -0.025532327221226073 0.033414513506949954 0.01220030146559664 -0.0072468276263357931 0.03522122398613426 0.015446063439389788 0.040738586602373041 -0.11417377293885476 0.0050871107693881484 0.050762326446210898 0.058705091056829022 0.013664294317753983 -0.094334295831910012 -0.14770839145013773 -0.13654160732247528
leaf_count=1865 808 10240 7601 12468 3202 10087 2416 1452 2075 10359 1738 2344 7221 25388 1043 19332 9311 1834 459 15542 3182 37688 3009 2978 31528 981 451 8111 1822 502 2629
internal_value=0 0.134801 -0.724891 -0.0117021 0.273579 -0.513799 -1.16339 -0.127791 0.0691161 -0.0754291 0.226078 0.0559563 -0.421802 0.218948 -0.106783 0.444844 -0.284218 0.18166 -0.312492 -0.120209 0.191484 0.181443 0.258198 -1.30839 0.0863981 0.232794 0.0742563 0.160368 -0.934818 -1.05863 -1.24662
internal_count=239666 202086 37580 98307 103779 25368 12212 40349 57958 30230 81245 55883 17767 79507 26944 22534 10119 3286 7680 25901 54119 50937 13249 7472 43415 3325 40090 8562 4740 2324 5607
shrinkage=0.1


Tree=10
num_leaves=32
num_cat=0
split_feature=0 9 9 2 2 9 0 9 11 0 10 11 5 10 0 9 0 0 8 0 2 0 4 10 4 9 5 11 2 11 1
split_gain=19006.6 3322.29 2818.35 797.672 667.576 401.194 351.026 249.671 234.563 161.704 161.584 150.802 112.128 106.982 103.604 92.4085 85.0119 70.7437 88.9969 72.9562 70.7106 67.5901 106.938 64.3727 57.7964 88.8957 69.7536 60.434 60.2739 57.6829 102.344
threshold=0.53392654657363903 0.28294077515602117 0.075426816940307631 0.43701429665088659 0.56834685802459728 0.035676388069987304 0.45520384609699255 0.18743205070495608 0.075245521962642684 0.61519405245780956 0.032088929787278182 0.10620985552668573 0.45950420200824743 0.015200245194137098 0.38852769136428839 0.32719916105270391 0.70151320099830639 0.72848385572433483 0.60265281796455394 0.68002024292945873 0.38693098723888403 0.67359486222267162 0.59115132689476024 0.0064408087637275466 0.50713786482810985 0.21747080236673358 0.52853897213935863 0.039185903966426856 0.46850971877574926 0.0089126224629580992 0.3016952276229859
decision_type=2 2 2 2 2 2 2 2 2 2 2 2 2 2 2 2 2 2 2 2 2 2 2 2 2 2 2 2 2 2 2
left_child=2 3 5 7 11 23 14 -2 10 12 -5 15 -9 -8 -4 17 -6 18 19 -3 -15 24 -23 -1 -12 -26 28 -28 -27 -7 -31
right_child=1 4 6 8 16 29 13 9 -10 -11 21 -13 -14 20 -16 -17 -18 -19 -20 -21 -22 22 -24 -25 25 26 27 -29 -30 30 -32
leaf_value=-0.11021018695592494 -0.025961440815811934 0.020990767782582888 -0.070831650554119385 -0.0042563080361180915 0.024907678815282015 -0.077339542084814514 -0.058542967567725729 0.011238740366135355 0.035126219777179619 0.021705976289816697 0.022525254035125473 0.047180418980166568 -0.011835799378024673 -0.035879165532793279 -0.050900813969121654 0.025863821264233946 0.042120413264860213 0.028625260012377248 0.014178860102484911 0.044316138391947764 -0.018825639665116814 0.056473223505490999 0.012423953966561622 -0.12999680848917966 -0.016383585511536718 0.0088070064530878962 0.0084230151703164318 -0.0005806816051381528 0.042614363308791169 -0.086341123795747807 -0.13417201413157603
leaf_count=3304 10165 12168 4093 15280 3347 3886 1575 2331 2635 1770 1929 2053 21812 8107 7189 18523 20105 5420 38780 1507 3473 588 8790 3273 1884 1225 18202 12626 926 2134 566
internal_value=0 0.121478 -0.652832 -0.00785633 0.248603 -1.02587 -0.451896 -0.126793 0.0591015 -0.0746905 0.0465736 0.204349 -0.0960796 -0.340904 -0.581315 0.197162 0.396639 0.177487 0.166248 0.235612 -0.307646 0.0760734 0.151858 -1.20057 0.0567564 0.0474333 0.0595026 0.0473544 0.23361 -0.851404 -0.963679
internal_count=239666 202066 37600 100163 101903 13163 24437 36078 64085 25913 61450 78451 24143 13155 11282 76398 23452 57875 52455 13675 11580 46170 9378 6577 36792 34863 32979 30828 2151 6586 2700
shrinkage=0.1


Tree=11
num_leaves=32
num_cat=0
split_feature=9 9 9 9 2 9 11 0 9 3 11 9 10 8 2 0 11 9 4 4 1 0 1 10 0 5 8 2 1 0 8
split_gain=15464.1 2813.1 2103.36 630.636 594.666 393.979 216.134 211.735 188.387 165.365 135.842 123.369 119.91 118.442 84.9773 83.4368 74.5547 73.6274 99.6936 92.9076 70.7519 67.1965 66.8239 64.4565 63.2694 73.1686 61.347 78.69 60.6939 59.6194 67.1638
threshold=0.16667734831571582 0.27546136081218725 0.058735683560371406 0.35345152020454412 0.42638660967350012 0.12004486843943597 0.074545204639434828 0.58823505043983471 0.026954679749906067 0.46934753656387335 0.10108990967273714 0.30007430911064154 0.032344747334718711 0.62917044758796703 0.39321035146713262 0.70961806178092968 0.0064712758176028737 0.21747080236673358 0.52577921748161327 0.48953533172607427 0.63790062069892894 0.69283077120780956 0.26354488730430609 0.005094722146168352 0.53392654657363903 0.43609872460365301 0.53759250044822704 0.43987950682640081 0.5711856782436372 0.72101289033889782 0.57508772611618053
decision_type=2 2 2 2 2 2 2 2 2 2 2 2 2 2 2 2 2 2 2 2 2 2 2 2 2 2 2 2 2 2 2
left_child=2 4 8 10 7 -4 12 24 23 -9 11 26 -6 21 -7 -5 -10 19 28 -14 -15 -13 -18 -1 -2 -26 -3 -28 -19 30 -29
right_child=1 3 5 15 6 14 -8 9 16 -11 -12 13 17 20 -16 -17 22 18 -20 -21 -22 -23 -24 -25 25 -27 27 29 -30 -31 -32
leaf_value=-0.097497310521009503 -0.027353830577331741 0.03699177671497407 -0.060211736353837968 0.022758332527613778 -0.0046355918920975006 -0.04006286214715099 0.031670951893177667 0.02689973893889713 -0.074938849697256255 -0.0089095089093034086 0.038783539927072751 0.02590485758400056 0.018882841710669562 0.0036898565850647953 -0.023972397948514076 0.038515575478912906 -0.090343958443322617 0.012440528775871562 0.004717019022540743 -0.015683544092320516 0.018562743979651859 0.049031340250961272 -0.12941043113349776 -0.12205374852862977 0.011317376549963972 -0.017220626076295563 -0.033307906699421935 0.018819631876354687 0.040633618318955331 0.026656790161140198 0.0080692283477060388
leaf_count=1639 6292 964 10386 4061 19440 10211 2530 1878 2824 4116 2871 9854 1019 3511 4837 19480 2227 2030 33728 3282 35937 1440 545 3073 955 15163 389 7721 1224 2541 23498
internal_value=0 0.106344 -0.606742 0.212469 -0.0236433 -0.452306 0.030333 -0.143843 -0.987797 0.0231001 0.173863 0.166708 0.0184012 0.198241 -0.348908 0.357973 -0.863746 0.0488951 0.0632971 -0.0749402 0.17239 0.288535 -0.980248 -1.13512 -0.188496 -0.155297 0.121139 0.114116 0.230454 0.119269 0.10728
internal_count=239666 203924 35742 112267 91657 25434 63253 28404 10308 5994 88726 85855 60723 50742 15048 23541 5596 41283 36982 4301 39448 11294 2772 4712 22410 16118 35113 34149 3254 33760 31219
shrinkage=0.1


Tree=12
num_leaves=32
num_cat=0
split_feature=2 9 9 9 9 9 10 0 11 10 11 0 4 8 9 8 0 10 2 0 10 2 3 11 8 0 9 8 2 4 2
split_gain=12538.5 2184.07 1861.52 562.294 426.835 367.078 230.256 172.489 153.735 100.866 98.0752 91.053 137.973 85.5037 103.156 143.168 84.5163 78.7785 76.0412 65.1812 63.7644 61.3763 61.7828 61.0881 57.1536 98.9903 88.219 65.8371 55.7633 62.3079 52.6546
threshold=0.38693098723888403 0.28548979759216314 0.08693194761872293 0.21160186827182773 0.3573253750801087 0.040923781692981727 0.034508360549807555 0.4246839731931687 0.088944412767887129 0.015200245194137098 0.11382389813661577 0.66454383730888378 0.58298450708389293 0.47578239440917974 0.24277874827384952 0.5270390808582307 0.56388357281684887 0.042976174503564842 0.56834685802459728 0.73519596457481395 0.037729289382696159 0.090499706566333785 0.14604099094867709 0.056817524135112769 0.59837800264358532 0.68954226374626171 0.30800187587738043 0.64378198981285106 0.44085140526294714 0.52715370059013378 0.44760620594024664
decision_type=2 2 2 2 2 2 2 2 2 2 2 2 2 2 2 2 2 2 2 2 2 2 2 2 2 2 2 2 2 2 2
left_child=2 3 5 9 10 21 28 -4 11 -2 18 13 -13 -8 -15 -16 -9 -17 20 -6 -3 -1 -23 30 -22 26 -26 -28 -5 -30 -11
right_child=1 4 7 6 19 -7 8 16 -10 23 -12 12 -14 14 15 17 -18 -19 -20 -21 24 22 -24 -25 25 -27 27 -29 29 -31 -32
leaf_value=-0.12001496814951605 -0.046485411684281559 0.001351298798025459 -0.049519326112296008 -0.0095027668321925295 0.02763985486986997 -0.064764308196901557 0.016972212921231643 -0.030858141425331727 0.03391603840930154 -0.014820465284183024 0.045040269971329289 0.047194558898735361 0.010859524123751357 -0.0094718427489536381 0.01895967118828653 0.0073652700243163633 0.011594311336313778 -0.0050300218037963888 0.027196793230884277 0.038618626967768008 0.023252192918126389 -0.090563751248050134 -0.13959251243965146 0.014855721122090543 0.0024819571719805582 0.018171242195182912 0.02172831758100266 0.0051025669618967838 0.026643600470232256 -0.0013984767213717877 -0.0019534194907016799
leaf_count=931 872 2987 5907 9751 11164 7586 4677 16132 2182 20277 1232 1158 10716 5881 5860 10370 483 10142 6208 10488 10002 6273 268 826 9590 36096 6666 3706 832 16631 3772
internal_value=0 0.0986346 -0.530406 -0.00237914 0.205626 -0.802599 0.0398231 -0.348421 0.0794667 -0.130558 0.170538 0.0678559 0.144031 0.0433637 0.0250405 0.0517469 -0.29624 0.0123651 0.165956 0.329579 0.156425 -0.959919 -0.925726 -0.118839 0.162887 0.150462 0.093955 0.157878 -0.0344499 -0.000624515 -0.128023
internal_count=239666 202086 37580 103947 98139 15058 78200 22522 50986 25747 76487 48804 11874 36930 32253 26372 16615 20512 75255 21652 69047 7472 6541 24875 66060 56058 19962 10372 27214 17463 24049
shrinkage=0.1


Tree=13
num_leaves=32
num_cat=0
split_feature=9 9 9 9 2 9 10 11 0 8 0 4 9 5 9 9 8 5 0 0 10 2 10 2 10 11 1 2 0 10 0
split_gain=10228.2 1868.29 1389.1 510.108 293.595 290.796 141.81 133.312 131.897 109.828 131.481 108.129 139.064 96.867 95.6606 94.7595 98.0099 86.0856 83.9033 79.2044 79.1347 73.876 66.9385 66.4265 64.3049 60.6317 75.1885 60.0516 52.6175 52.3461 49.9929
threshold=0.16667734831571582 0.26283910870552069 0.052952272817492492 0.33766774833202368 0.40702152252197271 0.11016458272933961 0.036494323983788497 0.072117619216442122 0.58215993642807018 0.54740834236145031 0.68559420108795177 0.47897499799728399 0.21860801428556445 0.50589165091514599 0.026954679749906067 0.29944798350334173 0.63048937916755687 0.62866416573524486 0.53392654657363903 0.70456853508949291 0.01458957511931658 0.37136010825634008 0.029922280460596088 0.44187422096729284 0.046130511909723289 0.0064712758176028737 0.24932573735713962 0.4623535573482514 0.64818319678306591 0.0043859127908945092 0.67359486222267162
decision_type=2 2 2 2 2 2 2 2 2 2 2 2 2 2 2 2 2 2 2 2 2 2 2 2 2 2 2 2 2 2 2
left_child=2 4 14 6 8 -4 23 11 -2 28 15 18 27 -14 29 24 -17 -12 -6 -5 -7 -22 -15 -3 -11 -16 -27 -13 -8 -1 -24
right_child=1 3 5 19 7 20 9 -9 -10 10 17 12 13 22 25 16 -18 -19 -20 -21 21 -23 30 -25 -26 26 -28 -29 -30 -31 -32
leaf_value=-0.070702764028130569 -0.018888272081727081 -0.02238509435903906 -0.051658783171839112 0.01721761639842518 -0.0079589443990032687 -0.051326225573067874 0.01979031295777001 0.022625905365349308 0.016419723631692872 0.010562338288224367 0.035539226262544008 -0.012842423396541375 0.017765906609364671 -0.012579087448463384 -0.061351053450165983 0.020623635541174582 0.0036501715251148269 0.015469690235894909 0.026998747079342141 0.029248029824276281 -0.034235735985737294 -0.020365626522681774 -0.00041620112876697305 0.0036543713564074877 0.00025439133373438445 -0.074823739322969041 -0.12032202112215967 0.0039537800700702548 0.039537293576800768 -0.097596071364554268 0.014297476224967093
leaf_count=893 14075 1114 9455 6929 994 1547 3876 2356 1144 10611 2264 14136 3040 4268 2426 9835 5201 38176 2220 26035 8026 7363 28350 8124 14086 1755 458 2506 2070 3819 2514
internal_value=0 0.0864872 -0.493448 0.159957 -0.0382131 -0.376099 0.122887 -0.00692804 -0.162342 0.135517 0.125792 -0.0163957 -0.0268484 0.00640924 -0.824637 0.0849365 0.147525 0.165933 0.161873 0.267192 -0.297668 -0.275995 -0.00840914 0.00514302 0.0468317 -0.722701 -0.8424 -0.103132 0.266649 -0.924994 0.00782289
internal_count=239666 203924 35742 128321 75603 26391 95357 60384 15219 86119 80173 58028 54814 38172 9351 39733 15036 40440 3214 32964 16936 15389 35132 9238 24697 4639 2213 16642 5946 4712 30864
shrinkage=0.1


Tree=14
num_leaves=32
num_cat=0
split_feature=9 9 9 2 2 9 0 0 4 11 11 8 4 9 9 8 4 2 10 0 8 9 5 2 9 10 6 10 3 0 10
split_gain=8294.88 1403.8 1269.99 326.191 319.838 216.641 144.548 127.793 201.172 102.495 79.9545 77.1702 72.5764 76.5056 74.0556 121.613 66.1312 65.7808 65.3379 59.747 67.1761 73.5962 63.2954 55.5288 55.5022 69.181 51.1962 49.4737 45.5006 44.3952 41.6661
threshold=0.17293590307235721 0.28093020617961889 0.081202566623687758 0.44473361968994146 0.56599318981170665 0.046778203919529922 0.40794268250465399 0.5767759680747987 0.48328299820423132 0.087797097861766829 0.10947782173752786 0.45285384356975561 0.52577921748161327 0.21041666716337207 0.25481376051902777 0.54426622390747081 0.55672463774681102 0.39703458547592169 0.037186151370406158 0.6903701424598695 0.58984106779098522 0.31072944402694708 0.63314503431320202 0.4841515719890595 0.023606041446328167 0.0064408087637275466 0.65142863988876354 0.050089593976736076 0.14604099094867709 0.69443419575691234 0.0043859127908945092
decision_type=2 2 2 2 2 2 2 2 2 2 2 2 2 2 2 2 2 2 2 2 2 2 2 2 2 2 2 2 2 2 2
left_child=2 3 5 7 10 24 -4 -2 -9 12 18 -10 13 -5 -14 23 -13 -8 -3 20 -20 27 -21 -16 30 -26 -23 -22 -27 -6 -1
right_child=1 4 6 9 29 -7 17 8 11 -11 -12 16 14 -15 15 -17 -18 -19 19 22 21 26 -24 -25 25 28 -28 -29 -30 -31 -32
leaf_value=-0.065973869731536808 -0.013625173902300317 -0.00016311083526322084 -0.043876294449049516 0.0013947195803130346 0.014154177932094572 -0.051341323093188 -0.02853633780772118 0.022302775734019009 -0.014921232960623771 0.031271667203523416 0.034694605910788892 -0.00044389935310348513 -0.0020915333531767613 0.026182955435759315 0.012798543781216594 0.0026531694073196328 -0.030503782633731338 -0.015740953955684259 0.017413288308127314 0.037267675779762838 0.010863695663608959 0.019488052866125313 0.015159703846461378 0.034743799277248903 -0.050446399119047615 -0.072009358543658558 0.0049464219110682038 -0.0014105662046220344 -0.10412753767160408 0.027701304705707055 -0.09122444014660748
leaf_count=841 17624 3786 4994 2222 2723 5706 13771 2891 6481 1404 1681 14778 19295 2832 4037 22443 770 5673 9391 1339 5047 6358 39421 1614 1375 2732 3910 9400 526 21670 2931
internal_value=0 0.0814487 -0.424932 -0.0056351 0.161602 -0.663795 -0.287008 -0.0710806 -0.02499 0.0460727 0.131149 -0.0575389 0.0389341 0.152848 0.0267854 0.0595463 -0.0193259 -0.248031 0.126537 0.133018 0.102136 0.0747786 0.15886 0.190664 -0.765886 -0.692563 0.139507 0.028774 -0.771948 0.26189 -0.855946
internal_count=239666 201117 38549 96391 104726 14111 24438 42544 24920 53847 80333 22029 52443 5054 47389 28094 15548 19444 78652 74866 34106 24715 40760 5651 8405 4633 10268 14447 3258 24393 3772
shrinkage=0.1


Tree=15
num_leaves=32
num_cat=0
split_feature=0 0 9 9 9 10 9 2 10 1 4 9 8 0 2 11 10 10 8 2 11 1 2 2 0 11 10 11 9 4 0
split_gain=6748.32 1483.18 708.326 439.755 185.938 168.057 127.349 101.896 99.1212 71.8148 63.5676 82.4965 74.02 72.2021 69.9738 61.6654 53.5879 51.9164 49.4218 46.9952 47.9522 49.4024 46.0795 43.4192 43.2039 42.3475 58.576 40.7244 44.2339 107.566 57.5749
threshold=0.49698323011398321 0.61727792024612438 0.046778203919529922 0.32820476591587072 0.18416389077901843 0.035302817821502692 0.092616666108369841 0.46143396198749548 0.096630182117223754 0.71177136898040783 0.52852362394332897 0.25481376051902777 0.54593414068222057 0.71248838305473339 0.54575264453887951 0.04688976705074311 0.034048656001687057 0.013969285413622858 0.64617541432380687 0.09555284678936006 0.0064712758176028737 0.23460444808006289 0.4841515719890595 0.39108866453170782 0.68877047300338756 0.013312095310539009 0.018538611009716991 0.027022279798984531 0.23366291821002963 0.48953533172607427 0.58475032448768627
decision_type=2 2 2 2 2 2 2 2 2 2 2 2 2 2 2 2 2 2 2 2 2 2 2 2 2 2 2 2 2 2 2
left_child=2 4 19 5 15 -3 -4 16 10 18 -7 -12 22 14 -14 23 -6 -8 -5 -1 -21 -22 -13 -2 -20 -19 -27 -18 29 30 -29
right_child=1 3 6 9 7 8 17 -9 -10 -11 11 12 13 -15 -16 -17 27 25 24 20 21 -23 -24 -25 -26 26 -28 28 -30 -31 -32
leaf_value=-0.082927488751154466 -0.024847691006797429 -0.00026553595157496765 -0.045170905064106898 0.029776996032368126 -0.0089453953630235332 0.023715864490165162 -0.044788402484367579 0.0082232485450220247 0.029730851615348705 0.027888412146858374 -0.003184934585766483 0.014410998594857755 0.0066075269831375296 0.015160759391805454 0.020255642762649587 0.022358083628882142 0.020468731060706125 -0.015546772509922632 0.0057972135878909675 -0.058768549607439449 -0.069868043646029318 -0.10861908771269527 0.035571629542477799 -0.013370897416887026 0.018277416602165145 -0.06831735586830244 -0.028255689947708624 -0.0041132460199166804 0.0016593240723157922 -0.019062166628030175 0.021050184400526244
leaf_count=1866 5077 18267 7595 3304 20581 3116 1836 6401 2542 10362 5076 2629 53368 16020 4041 401 795 2643 3142 4306 1832 401 1691 9399 23672 380 9230 3214 10856 4355 1268
internal_value=0 0.0635809 -0.442856 0.118325 -0.0656944 0.0846702 -0.347332 -0.0351224 0.102698 0.207075 0.096942 0.0916668 0.0997308 0.0922468 0.0756821 -0.163245 -0.0534133 -0.291066 0.18237 -0.689298 -0.649353 -0.768269 0.22694 -0.17396 0.16815 -0.267568 -0.298398 -0.017209 -0.0261669 -0.0786965 0.0300573
internal_count=239666 209577 30089 147230 62347 106750 21684 47470 88483 40480 85941 82825 77749 73429 57409 14877 41069 14089 30118 8405 6539 2233 4320 14476 26814 12253 9610 20488 19693 8837 4482
shrinkage=0.1


Tree=16
num_leaves=32
num_cat=0
split_feature=9 0 9 9 2 11 9 4 2 4 9 0 4 2 0 4 2 0 1 11 2 10 11 10 10 10 10 11 3 9 9
split_gain=5483.77 1135.25 628.178 323.01 183.184 149.637 127.173 126.173 85.2854 81.2373 80.4726 80.0453 62.1836 61.0846 60.3078 106.543 56.664 54.6083 53.9381 50.3557 57.3932 50.2236 65.7995 48.8953 59.9956 44.86 44.1312 43.6665 43.0248 46.2084 42.4786
threshold=0.15753589570522311 0.62659391760826122 0.046778203919529922 0.33029641211032873 0.40702152252197271 0.028011304326355461 0.10424295067787172 0.54264360666275036 0.46329300105571752 0.47897499799728399 0.22088731080293658 0.58347210288047802 0.51174125075340282 0.4623535573482514 0.67519924044609081 0.61119458079338085 0.52910536527633678 0.52674743533134472 0.71177136898040783 0.036163330078125007 0.48874984681606298 0.01458957511931658 0.013312095310539009 0.052559813484549529 0.034508360549807555 0.018538611009716991 0.058394694700837142 0.02915389928966761 0.583783119916916 0.29881955683231359 0.023606041446328167
decision_type=2 2 2 2 2 2 2 2 2 2 2 2 2 2 2 2 2 2 2 2 2 2 2 2 2 2 2 2 2 2 2
left_child=2 4 30 5 11 13 -4 -7 9 17 27 26 -12 -3 16 -16 28 -6 -5 -17 -21 -8 -23 24 -14 -24 -2 -11 29 -9 -1
right_child=1 3 6 18 8 7 21 14 -10 10 12 -13 23 -15 15 19 -18 -19 -20 20 -22 22 25 -25 -26 -27 -28 -29 -30 -31 -32
leaf_value=-0.069915604052309899 -0.01595172483532693 0.012664226285615782 -0.039164832917841924 0.016654627227980345 -0.0093961758285379671 0.02669224770754566 -0.039429943437036069 0.0042326949676711311 0.0073420944290192303 -0.0075791845617139107 0.014458092809857104 0.013728601916992489 -0.0078091097086530883 -0.011057081193236758 0.028395838219958849 0.0011536914283185201 0.017601154860316385 0.018403402366937636 0.025091812714797709 -0.01332103283568343 0.011315815570192398 -0.0088196747543016589 -0.059034544677869366 -0.016958615825828867 0.0035241255525456116 -0.024509532445503912 0.012265233374817316 -0.020538090419004999 -0.0036483549277221252 0.01611585974290489 -0.055622157967131429
leaf_count=3772 16130 1361 9452 28207 965 3944 1871 25230 8958 11582 2313 1031 7996 5364 3177 6300 3469 2639 10360 968 40792 2947 393 2190 11233 8883 574 3353 5819 3760 4633
internal_value=0 0.0593259 -0.385681 0.111446 -0.0455363 0.0815097 -0.301907 0.0918768 -0.015212 -0.0339949 -0.0473787 -0.13313 -0.0111887 -0.0625638 0.0841643 0.106599 0.0541343 0.109598 0.189211 0.0948748 0.107447 -0.241723 -0.218367 -0.0280099 -0.0118858 -0.259723 -0.149821 -0.104885 0.0419882 0.0577394 -0.620368
internal_count=239666 207715 31951 138751 68964 100184 23546 93459 51229 42271 38667 17735 23732 6725 89515 51237 38278 3604 38567 48060 41760 14094 12223 21419 19229 9276 16704 14935 34809 28990 8405
shrinkage=0.1


Tree=17
num_leaves=32
num_cat=0
split_feature=0 0 9 2 9 4 0 9 4 0 3 8 9 4 8 9 11 9 11 7 2 11 1 2 8 2 9 10 11 10 0
split_gain=4478.16 758.423 673.124 232.034 152.467 104.961 103.924 93.7574 75.4327 81.6281 92.5737 66.7218 64.4056 86.1829 71.5765 74.6064 56.6424 51.3166 49.7348 48.1499 73.0076 47.7755 61.4039 46.8173 45.1235 44.0953 43.992 43.7532 40.5726 57.5685 38.8919
threshold=0.53722265362739574 0.67519924044609081 0.070010978728532805 0.44187422096729284 0.3573253750801087 0.60453155636787426 0.45520384609699255 0.030842708423733715 0.55921691656112682 0.58706793189048778 0.4675107747316361 0.48075765371322637 0.26365083456039434 0.52174228429794323 0.56559172272682201 0.29506845772266393 0.037735750898718841 0.20257003605365756 0.055500390008091934 0.6775341033935548 0.55816927552223217 0.0077619280200451621 0.28965526819229132 0.48725704848766332 0.62288361787796032 0.48952043056488043 0.193745993077755 0.015200245194137098 0.016492777504026893 0.030197262763977054 0.73330166935920726
decision_type=2 2 2 2 2 2 2 2 2 2 2 2 2 2 2 2 2 2 2 2 2 2 2 2 2 2 2 2 2 2 2
left_child=2 3 7 8 5 -3 -4 -1 9 26 -11 -12 13 17 23 -16 -7 -5 -13 20 25 -9 -23 -14 -17 -18 -2 -8 -29 -30 -27
right_child=1 4 6 12 -6 16 27 21 -10 10 11 18 14 -15 15 24 19 -19 -20 -21 -22 22 -24 -25 -26 30 -28 28 29 -31 -32
leaf_value=-0.060048263450255893 -0.014776240111991823 0.030072482968298377 -0.028972517944265048 7.7655924451098396e-05 0.020239143897920836 0.0020857003846501479 -0.031907453892625608 -0.034643190081628188 -0.043323133553130763 0.017185992883388831 -0.0092625055947119766 0.0068648977910140191 0.0098409397030632534 -0.0016356743134792061 -0.0011314767950364201 0.013625715599699675 -0.0084404997806880079 0.019825014939531736 -0.020614379310733354 -0.00038866794243396299 0.021482229833816074 -0.044426519797020475 -0.079671492972671995 0.02514959141078929 0.0018023112972939644 0.0099802286060171955 -0.0055498700598515206 -0.0042493167495643025 -0.026226806979573764 -0.010565187505574183 0.021883453540851999
leaf_count=5667 8613 2647 12229 2169 21433 8380 1607 3555 523 2641 8151 6340 8713 27568 14301 8590 1229 3346 735 3542 6613 2364 625 2592 5171 41971 12920 3004 4253 5237 2937
internal_value=0 0.0598377 -0.312261 0.00526436 0.128936 0.105549 -0.222263 -0.506321 -0.0559499 -0.0509418 -0.000973075 -0.0309515 0.038996 0.0064718 0.0663285 0.0392643 0.0975603 0.120586 0.0401016 0.108979 0.116557 -0.424779 -0.517962 0.133509 0.0918281 0.102473 -0.0924033 -0.163756 -0.143779 -0.17584 0.107587
internal_count=239666 201125 38541 112373 88752 67319 26330 12211 39923 39400 17867 15226 72450 33083 39367 28062 64672 5515 7075 56292 52750 6544 2989 11305 13761 46137 21533 14101 12494 9490 44908
shrinkage=0.1


Tree=18
num_leaves=32
num_cat=0
split_feature=0 0 0 2 9 9 4 9 4 0 3 8 4 9 9 8 9 11 8 10 11 10 7 2 0 9 10 1 2 0 4
split_gain=3627.31 615.568 547.358 197.032 118.627 112.194 83.4202 71.4809 61.9289 68.299 92.3243 67.6569 52.8827 93.2622 63.477 58.995 54.6269 49.3981 48.5254 48.3694 45.7546 43.6206 39.7933 53.0729 39.194 38.8119 37.0564 39.9422 36.0136 35.4962 32.3875
threshold=0.53722265362739574 0.67757415771484386 0.36833493411540991 0.44760620594024664 0.3573253750801087 0.040923781692981727 0.61226835846900951 0.075426816940307631 0.56707319617271434 0.58823505043983471 0.47281450033187872 0.47578239440917974 0.53545206785202037 0.26365083456039434 0.23250208050012591 0.55983614921569835 0.29881955683231359 0.03545119799673558 0.63048937916755687 0.054382620379328735 0.0083400737494230288 0.046130511909723289 0.68500491976737987 0.56173554062843334 0.47750231623649603 0.24655750393867495 0.0058187011163681754 0.19803439825773242 0.42837592959403997 0.73965692520141613 0.43588866293430334
decision_type=2 2 2 2 2 2 2 2 2 2 2 2 2 2 2 2 2 2 2 2 2 2 2 2 2 2 2 2 2 2 2
left_child=2 3 5 8 6 26 -3 20 9 28 -11 -12 14 -14 -5 -15 21 -8 -18 -13 -4 -17 23 29 -9 -21 27 -1 30 -19 -2
right_child=1 4 7 12 -6 -7 17 24 -10 10 11 19 13 15 -16 16 18 22 -20 25 -22 -23 -24 -25 -26 -27 -28 -29 -30 -31 -32
leaf_value=-0.046189058658154501 0.007912152909612339 0.025419831874696038 -0.014199203169638559 0.0055656408817976212 0.018241919892389845 -0.034421873231726484 -9.3101489092068144e-05 -0.021730590879866913 -0.044197663114844965 0.015249352970166306 -0.01002074555563736 0.0048439821478567287 -0.0021005239822449867 0.013511636263763544 0.026073973521229418 0.0057064414697074167 0.013265952282386851 0.0085886821122623126 0.00035730287754937728 -0.035334599837377544 -0.07068084896009319 -0.0038905290129317284 -0.0049265161530846471 0.01888132120732228 -0.013448111093361498 -0.0020785756141970309 -0.057043720953577785 -0.0036342015782417345 0.0019243563170891289 0.024120001331386066 -0.010494367980498527
leaf_count=2490 1007 3189 217 4605 21405 7574 5633 11584 390 3293 7798 9392 22643 8163 2245 8852 8733 46134 4369 560 423 10186 1792 6255 11274 940 4737 242 3165 1520 18856
internal_value=0 0.053854 -0.281035 0.00607336 0.11791 -0.429979 0.0965092 -0.185684 -0.0452045 -0.0417667 -0.00189793 -0.0291002 0.0394287 0.0303483 0.12287 0.0591997 0.0399182 0.0883103 0.0896143 0.0218082 -0.5153 0.00571725 0.0973352 0.102208 -0.176455 -0.144942 -0.516945 -0.424196 -0.0798262 0.0908408 -0.0956121
internal_count=239666 201125 38541 115197 85928 15043 64523 23498 45401 45011 21983 18690 69796 62946 6850 40303 32140 61334 13102 10892 640 19038 55701 53909 22858 1500 7469 2732 23028 47654 19863
shrinkage=0.1


Tree=19
num_leaves=32
num_cat=0
split_feature=9 0 9 9 4 11 0 2 0 4 9 4 9 11 9 10 10 11 0 8 2 9 0 2 2 0 10 11 9 10 2
split_gain=2968.27 563.116 379.082 180.693 98.2551 108.818 83.1295 78.3364 55.5081 77.5319 56.1715 56.9009 53.0151 51.5512 48.9708 42.2933 53.1384 40.1593 39.3171 49.9093 39.196 37.9099 37.5423 44.473 40.2023 39.0936 38.9618 33.205 32.9886 32.7845 32.6694
threshold=0.16451603174209598 0.62659391760826122 0.046778203919529922 0.32719916105270391 0.54841345548629772 0.027022279798984531 0.40794268250465399 0.46329300105571752 0.54001682996749889 0.45644859969615942 0.21041666716337207 0.5056464970111848 0.23145139217376712 0.025770475156605247 0.092616666108369841 0.051632532849907882 0.034358358010649688 0.026866788975894455 0.74206751585006725 0.66151148080825817 0.46051965653896337 0.34645096957683569 0.71537846326828014 0.54674336314201366 0.53890693187713634 0.73965692520141613 0.089168895035982146 0.070546198636293425 0.23782878369092944 0.050089593976736076 0.090499706566333785
decision_type=2 2 2 2 2 2 2 2 2 2 2 2 2 2 2 2 2 2 2 2 2 2 2 2 2 2 2 2 2 2 2
left_child=2 7 30 4 12 20 -4 8 -2 -10 13 -12 -3 -11 -8 16 -13 -18 19 29 -6 -21 23 26 -24 -26 27 -7 -17 -5 -1
right_child=1 3 6 18 5 22 14 -9 9 10 11 15 -14 -15 -16 28 17 -19 -20 21 -22 -23 24 -25 25 -27 -28 -29 -30 -31 -32
leaf_value=-0.063156184473058985 -0.011716337857122887 0.0062362603199832001 -0.028074778702116054 0.0052359045740283418 0.016138463506790542 0.0046073617552572976 -0.044446848438135192 0.0057015124331765161 0.014418226576614623 -0.0039854853208305145 0.0082543108695888896 -0.00698165757566554 0.026690937404806582 -0.015961408245322491 -0.015487984809212188 -0.03606180702167585 0.042010484829578282 0.0016742706738433512 0.019778819841046593 0.004136906407890671 -0.013720814101234264 0.012585306183625956 0.016316481488345906 0.014939287452004915 0.0028582800115620078 0.022623579108822078 0.01812782932063018 -0.0032190373244449818 -0.009406012382500082 0.022850265409977873 -0.043300549236502804
leaf_count=932 8714 2035 10399 1294 496 60974 607 8932 2415 8485 4962 11386 3358 6236 15376 594 252 12029 8560 7493 3868 18242 6530 4184 6846 1172 1985 5950 2126 5761 7473
internal_value=0 0.0458572 -0.270078 0.0820515 0.0585378 0.0508481 -0.211156 -0.0300811 -0.0436817 -0.0304752 -0.0396308 -0.0157028 0.189725 -0.0905864 -0.165878 -0.0341777 -0.0206054 0.0250195 0.137437 0.121682 -0.103271 0.101255 0.0585223 0.0492887 0.104914 0.057474 0.0432106 0.0391154 -0.152272 0.196195 -0.455023
internal_count=239666 204879 34787 138748 97398 92005 26382 66131 57199 48485 46070 31349 5393 14721 15983 26387 23667 12281 41350 32790 4364 25735 87641 73093 14548 8018 68909 66924 2720 7055 8405
shrinkage=0.1


Tree=20
num_leaves=32
num_cat=0
split_feature=2 0 0 0 9 0 4 4 9 8 0 9 8 9 9 8 10 10 11 4 9 2 4 9 9 11 5 10 2 11 11
split_gain=2431.02 404.912 379.036 105.742 78.6546 78.0589 64.3559 55.3179 55.2614 68.3336 54.2199 53.7312 61.1935 49.6959 40.7216 45.9002 41.1523 40.0107 36.7908 36.4758 35.608 34.985 38.5166 40.7553 37.3396 38.3321 35.6328 31.636 31.2931 29.3683 27.2547
threshold=0.39703458547592169 0.36833493411540991 0.68002024292945873 0.61215668916702282 0.030842708423733715 0.73736917972564708 0.61688983440399181 0.52174228429794323 0.26672992110252386 0.5669635832309724 0.56738689541816723 0.3253291547298432 0.66604587435722362 0.075426816940307631 0.29944798350334173 0.63048937916755687 0.046403195708990104 0.015778522007167343 0.0083400737494230288 0.10996391624212266 0.34192353487014776 0.46329300105571752 0.47897499799728399 0.18235577642917636 0.21860801428556445 0.026075484231114391 0.49894005060195928 0.058394694700837142 0.49092508852481848 0.02362792938947678 0.034759722650051124
decision_type=2 2 2 2 2 2 2 2 2 2 2 2 2 2 2 2 2 2 2 2 2 2 2 2 2 2 2 2 2 2 2
left_child=1 4 3 17 19 6 -4 -5 29 28 13 30 -13 18 16 -16 -11 -2 -3 -1 -14 22 23 -19 25 -24 -26 -15 -10 -9 -8
right_child=2 10 5 7 -6 -7 11 8 9 14 -12 12 20 27 15 -17 -18 21 -20 -21 -22 -23 24 -25 26 -27 -28 -29 -30 -31 -32
leaf_value=-0.042479131427602825 -0.023526126798497068 -0.0096368646543951494 0.022003365992563566 0.014398044644315686 -0.029301303949948478 0.016872347906507015 -0.0019769488929557862 -0.016138403303358549 0.0094362875596747109 0.0055144558447333169 0.0049016014750397699 0.019622176368311504 0.0013964562176500082 -0.015208991578659582 0.011539664082435867 -0.00051105443630083958 -0.0046365019494489538 -0.0030276950263222599 -0.06020772622424303 -0.081108751496049084 0.010844670750796773 0.0053271531094364047 -0.004678287008031831 0.013432077559511188 0.011561434871729309 -0.015551469940430194 -0.0032822999793808583 0.01688335222522264 0.023341582644018095 -0.0001254580337969986 0.0063244233098371421
leaf_count=5411 914 218 3348 4288 9375 13154 4479 1200 6122 6785 1370 6493 5261 24945 8315 5099 9708 3608 423 256 16496 5190 8744 2580 1782 5153 17487 311 2200 25148 33803
internal_value=0 -0.217521 0.0466317 0.00928301 -0.349234 0.0980542 0.0847516 0.0339925 0.0266891 0.0509747 -0.14486 0.077944 0.111026 -0.155117 0.0286725 0.0695888 -0.00460533 -0.0281497 -0.430089 -0.442242 0.0856002 -0.0239 -0.0340773 0.0383498 -0.0475905 -0.0871006 -0.0190955 -0.148138 0.131123 -0.00854756 0.0535316
internal_count=239666 42309 197357 114323 15042 83034 69880 68865 64577 38229 27267 66532 28250 25897 29907 13414 16493 45458 641 5667 21757 44544 39354 6188 33166 13897 19269 25256 8322 26348 38282
shrinkage=0.1


Tree=21
num_leaves=32
num_cat=0
split_feature=9 9 9 9 8 2 2 4 9 10 8 4 2 2 10 11 10 11 10 11 9 4 11 11 2 10 0 2 8 2 0
split_gain=1972.89 417.667 209.354 125.927 91.1093 73.0246 63.2655 61.228 56.0815 52.5608 40.4654 39.5292 37.2059 36.3184 35.1924 49.8157 57.2365 45.2169 44.0438 40.2665 34.5841 54.5972 41.7652 37.9604 39.9393 35.1348 33.781 34.4952 33.0149 32.9736 32.7469
threshold=0.15490192174911502 0.24844916164875033 0.046778203919529922 0.32820476591587072 0.5270390808582307 0.43890543282032018 0.40234296023845678 0.48125115036964422 0.27330458164215093 0.037729289382696159 0.57774046063423168 0.54986590147018444 0.49534916877746588 0.42837592959403997 0.013969285413622858 0.013312095310539009 0.017689841799438003 0.0099032144062221068 0.016354920342564586 0.011252718511968853 0.21398515999317172 0.51174125075340282 0.026544526219367984 0.047573648393154151 0.46850971877574926 0.029488909058272842 0.71537846326828014 0.54041990637779247 0.59402972459793102 0.54674336314201366 0.57530081272125255
decision_type=2 2 2 2 2 2 2 2 2 2 2 2 2 2 2 2 2 2 2 2 2 2 2 2 2 2 2 2 2 2 2
left_child=2 6 -1 4 9 11 30 -8 28 13 12 -6 -10 -3 17 18 -17 -4 19 -16 22 -22 -9 25 -25 -23 29 -28 -7 -12 -2
right_child=1 3 14 -5 5 8 7 20 10 -11 26 -13 -14 -15 15 16 -18 -19 -20 -21 21 23 -24 24 -26 -27 27 -29 -30 -31 -32
leaf_value=-0.037009397413143033 -0.0099666822048614778 -0.013229009434529333 -0.021572655394728565 0.011208476843807045 2.1471640393218683e-05 -0.0029976944609828326 0.0082882269371615698 -0.0027790690825475204 0.0076212457442766572 0.021387512053604601 0.0022769271291105228 -0.032102413796008367 0.02077621834652502 0.011002565360564355 -0.0049856559802740332 -0.055369151384502727 -0.018193556293824999 -0.046929403383710155 0.0051695444565788787 -0.028286080102938121 0.0095771077718408287 -0.0098570839175906675 -0.013794795127586475 -0.025890573090873659 0.0043563425011892976 0.000675726668383312 0.013402344957576685 0.0037606423374716719 0.0057660929237570826 0.011818725588099644 0.0074219672856745862
leaf_count=8405 14726 816 5979 40517 692 14801 5732 10149 8839 4860 42850 858 2841 2556 1777 431 10593 797 1756 1273 4431 3898 5208 1313 654 16888 7386 7457 6058 3956 1169
internal_value=0 0.0349777 -0.235345 0.0647935 0.0463641 0.0376837 -0.0321583 -0.0141405 0.0412267 0.147317 0.054241 -0.177607 0.10821 0.051387 -0.185245 -0.15943 -0.19647 -0.245551 -0.0744694 -0.147107 -0.0272134 -0.00578294 -0.0651482 -0.0255599 -0.158339 -0.0129949 0.044016 0.0855843 -0.00452461 0.0308339 -0.0868783
internal_count=239666 208655 31011 144487 103970 95738 64168 48273 94188 8232 73329 1550 11680 3372 22606 15830 11024 6776 4806 3050 42541 27184 15357 22753 1967 20786 61649 14843 20859 46806 15895
shrinkage=0.1


Tree=22
num_leaves=32
num_cat=0
split_feature=9 0 0 0 0 9 4 4 11 9 8 9 11 8 9 10 1 11 2 11 10 2 11 10 2 9 3 10 4 11 2
split_gain=1610.71 273.089 241.661 84.417 58.6486 56.9203 52.9914 45.438 44.8478 42.0902 74.8397 42.4703 40.2313 39.1311 35.5244 34.1925 33.9024 29.7872 29.3048 28.8746 27.4511 26.9452 26.5489 25.9599 25.6746 24.6463 34.0623 24.768 24.5516 22.886 51.129
threshold=0.17495609074831012 0.68163675069808971 0.36833493411540991 0.60907283425331127 0.73965692520141613 0.026954679749906067 0.62353304028511058 0.52174228429794323 0.037735750898718841 0.25728833675384527 0.55826804041862499 0.28418979048728948 0.048914339393377311 0.61371049284935009 0.075426816940307631 0.0043859127908945092 0.1566250026226044 0.11382389813661577 0.49092508852481848 0.0083400737494230288 0.0064408087637275466 0.46850971877574926 0.016492777504026893 0.022547809407114986 0.508558750152588 0.046778203919529922 0.14604099094867709 0.0092247854918241518 0.5631006956100465 0.051388747990131385 0.47450423240661627
decision_type=2 2 2 2 2 2 2 2 2 2 2 2 2 2 2 2 2 2 2 2 2 2 2 2 2 2 2 2 2 2 2
left_child=2 3 5 21 6 15 -3 -5 24 29 18 -12 14 -13 19 16 -1 -10 -11 -4 -7 22 -2 -24 -8 26 -22 -28 -23 -9 -31
right_child=1 4 12 7 -6 20 8 9 17 10 11 13 -14 -15 -16 -17 -18 -19 -20 -21 25 28 23 -25 -26 -27 27 -29 -30 30 -32
leaf_value=-0.046772413491271148 0.020380616073772104 0.017789818163136115 -0.0064521828363008731 0.012072018812619769 0.014815875064520116 -0.0092098822934589143 0.011690608214479746 -0.00078403989493876886 0.0069053577593909052 0.0083597234158076222 -0.0027984624393544003 0.00797795421298313 0.022683700101477397 4.2332442967049191e-05 -0.012156168020203268 -0.041654863751669713 -0.0057815036238131369 0.025717201977842802 0.021124523725633757 -0.051253234599546331 -0.0288803893847174 0.010742147765887139 -0.036527278990372711 -0.0036104587768638592 -0.0048523329418630494 -0.022717807714339993 -0.028160764121940369 -0.075585415042635593 -0.0061611584524475854 -0.024721751047730698 0.014256812585322926
leaf_count=308 459 4301 218 4821 11253 1083 1153 18951 58534 7194 13668 12848 324 12034 23494 3819 585 854 2398 423 2229 2606 241 40917 5035 6543 173 303 1282 1137 478
internal_value=0 0.0364185 -0.184539 0.00592454 0.0811593 -0.284274 0.0703697 0.0268743 0.0633171 0.0202895 0.0364665 0.0167992 -0.1232 0.0413995 -0.127899 -0.375357 -0.199195 0.0717587 0.115509 -0.360167 -0.242731 -0.0279271 -0.0353648 -0.038032 -0.0176991 -0.260371 -0.34066 -0.583491 0.0516858 -0.0175786 -0.131851
internal_count=239666 200164 39502 119034 81130 15043 69877 73529 65576 68708 48142 38550 24459 24882 24135 4712 893 59388 9592 641 10331 45505 41617 41158 6188 9248 2705 476 3888 20566 1615
shrinkage=0.1


Tree=23
num_leaves=32
num_cat=0
split_feature=2 0 0 9 8 2 9 9 4 9 10 7 2 10 0 4 11 9 11 11 2 0 9 11 10 0 2 10 8 9 8
split_gain=1319.38 213.444 207.703 62.6757 73.2537 83.8999 52.4478 47.5658 51.9649 47.3672 45.7036 37.9459 49.9496 37.6227 30.7963 37.2083 46.4306 41.9837 29.962 26.6323 37.4254 42.8976 26.2087 25.6742 38.4059 45.8761 26.5066 25.5283 25.0544 32.5418 44.3667
threshold=0.39703458547592169 0.36833493411540991 0.68321928381919872 0.23366291821002963 0.51748549938201915 0.46588551998138433 0.27182678878307348 0.35913012921810156 0.62353304028511058 0.023606041446328167 0.034820334985852248 0.67588859796524059 0.55990913510322582 0.037548284977674491 0.49698323011398321 0.47897499799728399 0.031751537695527084 0.17871602624654773 0.039185903966426856 0.057146035134792335 0.48952043056488043 0.66454383730888378 0.075426816940307631 0.026702737435698513 0.040353862568736083 0.63767415285110485 0.47781319916248327 0.0043859127908945092 0.57774046063423168 0.30332298576831823 0.63900440931320202
decision_type=2 2 2 2 2 2 2 2 2 2 2 2 2 2 2 2 2 2 2 2 2 2 2 2 2 2 2 2 2 2 2
left_child=1 9 3 14 5 10 19 8 -4 27 -5 12 18 22 -2 17 -17 -16 -10 20 21 23 -3 -6 26 -26 -25 -1 -8 -30 -31
right_child=2 13 7 4 6 -7 28 -9 11 -11 -12 -13 -14 -15 15 16 -18 -19 -20 -21 -22 -23 -24 24 25 -27 -28 -29 29 30 -32
leaf_value=-0.019929455574734672 -0.033109772337337903 -0.032415015169080817 0.017414914129083154 -0.0040279439504857023 -0.010359832637672489 0.022714143543088178 0.0070594893601956437 0.011558791852921559 -0.0012552739223452543 -0.022341217746373324 0.010269542679835425 -0.0038480099462667953 0.014682121231972775 -0.0028051907957711043 -0.0032954824642126984 -0.0017967441826020184 -0.011291453256311805 0.011330874197776097 0.0059155891408325693 -0.014858916147087951 -0.0083649887641759138 0.015886710074468111 -0.011898395108507634 0.0075678316814934759 -0.011697970989575986 0.007313332734675832 -0.0082652058519490975 -0.039694186658460265 -0.0014920845469169014 0.0094667841827459354 -0.0028671504716048478
leaf_count=841 326 641 3707 3791 2438 3432 12379 20387 6876 11270 5450 4290 5798 4892 3989 24281 6537 3863 38185 1622 6146 1680 21734 6953 3886 1885 1247 2931 15142 8673 4394
internal_value=0 -0.160247 0.0343535 0.00778146 0.0239537 0.0936274 0.0106649 0.0739599 0.0595405 -0.255877 0.0440418 0.0518367 0.0594551 -0.107493 -0.0250301 -0.0224498 -0.0381073 0.0390034 0.0482136 -0.024535 -0.0162323 0.00667375 -0.124862 -0.00890824 0.00761559 -0.0548825 0.0516005 -0.352875 0.0330894 0.0166309 0.0531929
internal_count=239666 42309 197357 118114 79118 12673 66445 79243 58856 15042 9241 55149 50859 27267 38996 38670 30818 7852 45061 25857 24235 18089 22375 16409 13971 5771 8200 3772 40588 28209 13067
shrinkage=0.1


Tree=24
num_leaves=32
num_cat=0
split_feature=0 0 9 0 4 11 9 4 9 2 2 4 2 2 2 2 4 3 4 9 4 11 10 2 4 9 9 10 4 11 9
split_gain=1078.75 248.685 99.0781 70.61 82.3465 59.8242 43.1688 36.987 42.6796 37.444 36.2313 42.378 39.8056 39.2531 33.0937 31.6105 52.5313 31.4397 29.7541 34.0312 36.0308 32.7866 38.1165 30.4927 29.8967 29.534 28.5052 30.451 24.9632 24.1589 23.5623
threshold=0.49105608463287359 0.62968707084655773 0.040923781692981727 0.70961806178092968 0.55921691656112682 0.027022279798984531 0.14947264641523364 0.64804974198341381 0.35160928964614874 0.53673899173736583 0.47017517685890203 0.43986473977565771 0.36784796416759497 0.41267395019531256 0.47535651922225958 0.54041990637779247 0.66738727688789379 0.12978194653987887 0.48750694096088415 0.24083086103200915 0.52992287278175365 0.031751537695527084 0.036831991747021682 0.42738705873489385 0.52174228429794323 0.18589583039283755 0.018630208447575573 0.0043859127908945092 0.55393728613853466 0.0051963233854621657 0.193745993077755
decision_type=2 2 2 2 2 2 2 2 2 2 2 2 2 2 2 2 2 2 2 2 2 2 2 2 2 2 2 2 2 2 2
left_child=2 6 17 4 14 -6 -2 -5 9 -9 11 12 -8 30 -3 -7 -17 26 25 21 -21 22 -20 -22 -23 -15 -1 -28 -12 -19 -13
right_child=1 3 -4 7 5 15 10 8 -10 -11 28 13 -14 18 -16 16 -18 29 19 20 23 24 -24 -25 -26 -27 27 -29 -30 -31 -32
leaf_value=-0.036683320977988029 -0.012209039090208347 0.0099703925386294585 -0.0146078815514302 0.02838860216350211 -0.0095846790515095332 0.0023052511211427667 -0.0021274590156471081 0.0096308499784642405 0.011271072919015461 0.0019624662390286323 0.012646008301129892 -0.012157902600932842 0.017400310999926255 -0.0026852706777667152 0.026178951104379608 0.015304336806696961 0.0014928578992589182 -0.014427159169248041 -0.0037783112091982363 0.013365017017377995 -0.017984949506153914 -0.0051302179199149258 0.024276665866422562 0.00039997781448562053 -0.02100714561975173 0.013728096149981522 0.0057135701235615935 -0.024423646248380129 0.00058472915491833909 -0.06403047205091511 -0.0041789175592945932
leaf_count=1884 4030 4947 21672 888 3891 67256 2141 10861 19950 15391 2737 6158 2037 2007 1690 5264 5775 131 16413 2050 962 2617 499 14497 2169 2416 361 4704 4600 392 9276
internal_value=0 0.0249622 -0.180315 0.0504271 0.033831 0.0251784 -0.0214263 0.0817311 0.0778457 0.0513504 -0.0156785 -0.0233957 0.0739338 -0.0302805 0.140976 0.031193 0.0807893 -0.279614 -0.0149477 -0.0237188 0.00907833 -0.0501842 -0.0295053 -0.007441 -0.123256 0.0628029 -0.261818 -0.222757 0.0508408 -0.516059 -0.0736245
internal_count=239666 210522 29144 135913 88823 82186 74609 47090 46202 26252 70579 63242 4178 59064 6637 78295 11039 7472 43630 39207 17509 21698 16912 15459 4786 4423 6949 5065 7337 523 15434
shrinkage=0.1


Tree=25
num_leaves=32
num_cat=0
split_feature=0 0 0 4 0 2 4 9 8 9 9 11 11 10 4 2 8 2 4 10 2 9 11 2 11 2 0 9 10 8 9
split_gain=884.008 151.467 126.943 57.0493 52.695 42.2491 45.954 37.6233 72.6554 43.6155 32.2829 31.6659 29.3678 27.7137 26.2707 25.9677 25.1789 25.0817 36.1163 30.1509 49.9882 34.8306 24.8832 39.9766 28.342 26.9223 24.8481 24.537 24.3349 23.8789 54.5462
threshold=0.54001682996749889 0.66870567202568065 0.36833493411540991 0.59786957502365123 0.73736917972564708 0.41765178740024572 0.49883750081062322 0.24655750393867495 0.52881503105163585 0.28927645087242132 0.023606041446328167 0.031751537695527084 0.11382389813661577 0.036831991747021682 0.43588866293430334 0.47361665964126592 0.61371049284935009 0.43701429665088659 0.54986590147018444 0.043239155784249313 0.48261944949626928 0.27114915847778326 0.044303227216005332 0.48797565698623663 0.064832765609025969 0.4931205958127976 0.59054261445999157 0.18416389077901843 0.0064408087637275466 0.64498311281204235 0.30934999883174902
decision_type=2 2 2 2 2 2 2 2 2 2 2 2 2 2 2 2 2 2 2 2 2 2 2 2 2 2 2 2 2 2 2
left_child=2 5 10 -3 12 14 27 11 15 17 -1 13 22 -8 -2 -9 -11 18 -10 20 -19 -22 25 24 -24 -5 -16 -7 -12 30 -25
right_child=1 3 -4 4 -6 6 7 8 9 16 28 -13 -14 -15 26 -17 -18 19 -20 -21 21 -23 23 29 -26 -27 -28 -29 -30 -31 -32
leaf_value=-0.028910592493940908 0.010422380247818337 0.018796456712767806 -0.0092267213902429944 0.01166422378941346 0.010972247674323794 0.00025150823542798576 -0.0011165129781007112 0.0073009470308359765 0.002635727928062393 0.0078550885806217968 -0.0063727002576865954 -0.0077706429235433055 0.020354219179635022 0.018578526521503613 -0.0065465364421400237 0.020095354734902635 -0.00090899492184094884 0.0055141732804643963 -0.032294175554903784 -0.005132120753499299 -0.012601080333765523 0.0082354955000839402 0.015331599193390475 0.0038407819602012147 -0.018440351004487959 -0.0008269658025247483 0.0063783036695866414 0.014341019618183166 -0.020044810860800649 0.0040820886412877315 0.01595337116087904
leaf_count=3772 1133 3147 24439 1943 13154 1838 21520 5818 550 9465 1502 8082 1102 739 15442 2181 5015 10214 641 11560 3197 1071 315 9394 1177 15411 1646 3774 9769 44502 6153
internal_value=0 0.0269718 -0.136754 0.055542 0.0510683 0.000488374 0.00978905 0.00365665 0.0205932 0.00385201 -0.209028 -0.0240929 0.0414237 -0.00462637 -0.0432382 0.107895 0.0481974 -0.0197268 -0.161637 -0.0132367 0.0171636 -0.0737241 0.0391592 0.04859 -0.113102 0.00571581 -0.0530155 0.0972653 -0.182228 0.0526075 0.0863455
internal_count=239666 200184 39482 96298 93151 103886 85665 80053 49712 41713 15043 30341 79997 22259 18221 7999 14480 27233 1191 26042 14482 4268 78895 61541 1492 17354 17088 5612 11271 60049 15547
shrinkage=0.1


Tree=26
num_leaves=32
num_cat=0
split_feature=9 0 9 0 10 4 9 7 9 2 0 0 4 2 9 11 10 0 7 9 10 2 4 2 11 2 10 1 9 8 9
split_gain=721.246 166.73 68.1741 60.5623 41.4915 32.5521 31.6889 33.3015 36.1997 30.5354 31.019 26.2758 31.8248 33.3699 28.4528 28.1672 26.02 34.1279 23.0804 26.4727 22.1566 21.6665 21.1766 40.2101 33.3632 20.7601 23.858 20.902 21.453 19.3927 40.9431
threshold=0.14947264641523364 0.61417752504348766 0.046778203919529922 0.70673543214797985 0.1060532256960869 0.64804974198341381 0.35160928964614874 0.67000049352645885 0.33374096453189855 0.5353260636329652 0.73330166935920726 0.48480641841888433 0.43986473977565771 0.37456649541854864 0.20257003605365756 0.023969649337232116 0.0064408087637275466 0.27486410737037664 0.52236858010292064 0.28995718061923986 0.020500535145401958 0.56599318981170665 0.54264360666275036 0.46676629781723028 0.024808456189930442 0.47017517685890203 0.029169526882469658 0.56538343429565441 0.24655750393867495 0.67393779754638683 0.31558582186698919
decision_type=2 2 2 2 2 2 2 2 2 2 2 2 2 2 2 2 2 2 2 2 2 2 2 2 2 2 2 2 2 2 2
left_child=2 11 16 4 22 -5 7 8 9 -7 21 20 13 -13 15 -14 17 -1 25 -20 -2 -11 23 -3 -24 26 -16 -28 -29 30 -26
right_child=1 3 -4 5 -6 6 -8 -9 -10 10 -12 12 14 -15 18 -17 -18 -19 19 -21 -22 -23 24 -25 29 -27 27 28 -30 -31 -32
leaf_value=-0.018182951822334471 -0.041408373778727664 0.0036662338667648913 -0.011668766903561218 0.021333615184966567 0.017895581942866556 0.0081106047026226254 0.0091814567075879025 -0.0028485170529297596 0.015237766772940302 -0.0031697522400502606 0.012148983170465857 -0.00079415355714286149 -0.0018091417551751761 0.016726425054342475 -0.0076587125140428775 -0.0098659454804091509 -0.027209867493511869 0.026596461338454121 -0.010908042110081697 0.0056122094204481797 -0.0087088321052893932 0.030314182722235496 -0.011345856556844757 0.022038153170475114 0.0013501944793795986 0.0083026406041054445 0.0015415218358068299 -0.017315223189331631 0.0034276830275640304 -0.0041290673271903193 0.0073657600580650908
leaf_count=3461 221 6358 20715 1463 1696 9603 20683 5630 3412 8053 1792 2740 8589 1802 4161 8770 4765 179 4075 1273 3322 198 1923 1466 69352 2833 20614 1242 833 4922 13520
internal_value=0 0.0204014 -0.147508 0.0382652 0.0238874 0.0663333 0.0619772 0.0404655 0.057301 0.0407886 0.00223755 -0.0239282 -0.0187283 0.0615699 -0.0256898 -0.0587955 -0.223469 -0.159809 -0.00928485 -0.0697568 -0.107485 -0.0236624 0.0211911 0.0710862 0.0168399 0.0016104 -0.00697997 0.00578548 -0.0898807 0.0196939 0.0233159
internal_count=239666 210546 29120 150071 99237 50834 49371 28688 23058 19646 10043 60475 56932 4542 52390 17359 8405 3640 35031 5348 3543 8251 97541 7824 89717 29683 26850 22689 2075 87794 82872
shrinkage=0.1


Tree=27
num_leaves=32
num_cat=0
split_feature=0 0 9 9 4 11 5 10 11 10 11 10 11 11 10 10 11 2 4 9 10 10 2 4 5 9 0 0 3 9 10
split_gain=588.958 105.282 85.6814 39.218 37.7665 36.576 36.4367 29.6552 55.6906 54.3256 46.7767 48.3625 37.6957 30.933 39.6833 27.5108 26.3871 26.0558 25.5475 24.1059 22.484 23.324 50.2119 24.127 23.481 24.1462 21.3801 21.2775 21.1375 21.328 24.6166
threshold=0.54001682996749889 0.69601500034332286 0.052952272817492492 0.22626160085201266 0.63538044691085827 0.041547216475009925 0.51438006758689891 0.015200245194137098 0.01268225070089102 0.017689841799438003 0.014871825464069845 0.020500535145401958 0.010817171540111305 0.016492777504026893 0.030333423055708412 0.030197262763977054 0.020700358785688881 0.52361086010932933 0.44712910056114202 0.15213741362094882 0.109821654856205 0.058709237724542625 0.49092508852481848 0.58878210186958324 0.53493845462799083 0.253964513540268 0.74339488148689281 0.56209614872932445 0.18046330660581592 0.018630208447575573 0.0043859127908945092
decision_type=2 2 2 2 2 2 2 2 2 2 2 2 2 2 2 2 2 2 2 2 2 2 2 2 2 2 2 2 2 2 2
left_child=2 3 28 16 -3 17 27 12 -9 -10 -11 -12 -4 -13 -15 -8 19 -6 -18 -2 21 -17 24 -24 -23 -26 -7 -5 29 -1 -31
right_child=1 4 7 6 5 26 15 8 9 10 11 13 -14 14 -16 20 18 -19 -20 -21 -22 22 23 -25 25 -27 -28 -29 -30 30 -32
leaf_value=-0.02800282111150186 -0.0072936317990695693 0.018680857353002699 -0.011390555936288835 -0.0032169093353534416 0.0059685136342564398 0.0050801045626907796 -0.007413287961216858 0.0070664916154799867 -0.033416708724772828 0.0098583411112324899 -0.033855765142356137 0.011747659292472911 -0.033255436821106453 -0.014169195624420676 -0.0041791803297408408 0.0022275900477507268 0.0077183824148843701 -0.0072843235061460995 -0.0039774500701998177 0.0099305233088294153 0.016617020285261925 0.0062930245277601354 0.014082396557302968 0.00050738113126678173 -0.031720428028952294 -0.008747432467467257 0.010549356640820327 0.012156706909098872 -0.042625276156835951 0.0092967399088972873 -0.017403375795546041
leaf_count=1884 1113 2115 6795 1109 2419 47389 3602 2588 840 1446 741 776 892 7256 8797 68901 1995 3836 29248 3010 973 951 1461 12605 497 5760 8417 4783 380 364 6723
internal_value=0 0.0220153 -0.111623 0.00626213 0.0554008 0.0509225 0.0163283 -0.0856713 -0.0673114 -0.085295 -0.0743015 -0.0885298 -0.139278 -0.0775208 -0.0869469 0.0115835 -0.0223834 -0.0215905 -0.0323062 0.0528088 0.0149708 0.0133393 -0.0156039 0.0191738 -0.0834706 -0.105722 0.0590501 0.0926306 -0.195245 -0.18546 -0.16032
internal_count=239666 200184 39482 136008 64176 62061 100642 30131 22444 19856 19016 17570 7687 16829 16053 94750 35366 6255 31243 4123 91148 90175 21274 14066 7208 6257 55806 5892 9351 8971 7087
shrinkage=0.1


Tree=28
num_leaves=32
num_cat=0
split_feature=2 0 9 4 0 11 4 10 4 11 0 0 4 9 5 10 2 9 7 10 8 9 2 10 3 0 11 2 9 11 10
split_gain=482.597 101.578 55.1984 39.927 50.9147 34.1916 30.4593 29.0677 27.9785 28.3959 24.2226 22.3827 27.3503 28.6038 32.1493 33.5152 38.8076 28.5561 33.1625 26.4029 22.2213 45.4092 32.3886 30.3349 30.1764 25.3563 27.6108 27.8933 33.2188 22.0786 23.6334
threshold=0.37456649541854864 0.62968707084655773 0.035676388069987304 0.55921691656112682 0.70151320099830639 0.026702737435698513 0.10996391624212266 0.035958396270871169 0.64277762174606334 0.040064366534352309 0.64236345887184154 0.48480641841888433 0.43588866293430334 0.20112249255180362 0.46704731881618505 0.051632532849907882 0.48797565698623663 0.29383398592472082 0.54996237158775341 0.029169526882469658 0.64498311281204235 0.31002750992774969 0.53461831808090221 0.046403195708990104 0.57000681757926952 0.65575030446052562 0.053852736949920661 0.47100521624088293 0.27822569012641912 0.024311670102179054 0.034508360549807555
decision_type=2 2 2 2 2 2 2 2 2 2 2 2 2 2 2 2 2 2 2 2 2 2 2 2 2 2 2 2 2 2 2
left_child=2 11 6 10 5 -5 -1 -4 -6 -10 -3 -2 -13 -14 -15 16 17 18 19 -16 21 22 24 -23 25 26 27 -7 -29 -21 -31
right_child=1 3 7 4 8 20 -8 -9 9 -11 -12 12 13 14 15 -17 -18 -19 -20 29 -22 23 -24 -25 -26 -27 -28 28 -30 30 -32
leaf_value=-0.017508777597152244 -0.017605174240650997 0.0042257368914335276 -0.010529909091367426 -0.0085820199959432408 0.017148651230379133 0.0086787769227834131 -0.043304524708238215 -0.00084834477795999819 -0.0030101619099892275 0.0054645541664537466 0.016375484960439522 0.0082001459349087657 -0.0048404370626380245 0.01122081573048272 -0.0071503983840155065 -0.0073450981552497657 0.013788414248547024 0.013387908959257093 -0.017515826232679537 0.0090281271778843188 -0.0021128530163456298 -0.0023250905928232208 0.011612876262770189 0.011927606705544578 -0.001757201536413429 0.0085444650199219593 -0.0099404109022105808 -0.0076179200177574598 0.0067658944689614605 -0.0037680563574491194 0.0022690412146634752
leaf_count=6082 830 2964 22693 3387 1901 4792 495 3592 4284 51283 3676 3034 18598 2335 4992 6700 2025 1439 1173 2881 12435 1879 2860 7275 24018 6654 1971 3694 2840 10920 15964
internal_value=0 0.0178878 -0.11257 0.0338939 0.0300094 0.0122551 -0.194502 -0.0920687 0.052193 0.0481119 0.10952 -0.0127993 -0.0108653 -0.0150689 -0.0022672 -0.00806622 0.0030542 -0.00425214 -0.00978431 -0.00420317 0.0171103 0.0256039 0.013012 0.0900202 0.00630469 0.0350487 0.00982981 0.0288392 -0.01366 0.0070841 -0.00183165
internal_count=239666 206804 32862 135913 129273 71805 6577 26285 57468 55567 6640 70891 70061 67027 48429 46094 39394 37369 35930 34757 68418 55983 46829 9154 43969 19951 13297 11326 6534 29765 26884
shrinkage=0.1


Tree=29
num_leaves=32
num_cat=0
split_feature=9 0 0 9 11 4 3 2 4 0 4 2 11 2 0 1 3 9 7 2 6 9 10 9 11 3 1 2 0 2 1
split_gain=397.923 93.0435 38.715 37.7542 33.235 24.8833 17.6283 23.8219 22.1093 26.6641 17.0584 48.164 27.0299 22.5636 20.8645 17.6732 16.8782 20.1008 29.3972 15.4378 20.9604 22.789 17.2716 16.749 21.731 20.7259 19.4319 17.8793 17.2276 14.7712 22.5551
threshold=0.14947264641523364 0.61215668916702282 0.7239690124988557 0.026954679749906067 0.11382389813661577 0.095805879682302489 0.68601745367050182 0.55376535654068004 0.67640870809555065 0.69364270567893993 0.56043553352355968 0.47781319916248327 0.02592423185706139 0.50307294726371776 0.64236345887184154 0.5711856782436372 0.63332238793373119 0.3573253750801087 0.68919482827186596 0.4596251398324967 0.56054201722145092 0.28927645087242132 0.062739219516515746 0.25312484800815588 0.028574298135936264 0.50958284735679638 0.563432276248932 0.43603986501693731 0.60313978791236889 0.54999101161956798 0.69569259881973278
decision_type=2 2 2 2 2 2 2 2 2 2 2 2 2 2 2 2 2 2 2 2 2 2 2 2 2 2 2 2 2 2 2
left_child=3 19 4 5 6 -1 7 10 9 -9 11 14 13 -12 15 -3 -4 18 29 20 23 -22 -21 26 -25 -26 28 -27 -2 -18 -31
right_child=1 2 16 -5 -6 -7 -8 8 -10 -11 12 -13 -14 -15 -16 -17 17 -19 -20 22 21 -23 -24 24 25 27 -28 -29 -30 30 -32
leaf_value=-0.017409783081444988 -0.0026878041523178647 0.006151225253974337 0.014444026673456654 -0.0093744924567590177 0.015052380113320865 -0.049469815277552703 -0.0095576037806677869 0.0065389556781154509 0.0025588768653075724 0.023025073768304007 -0.01104929967419197 0.019944310199286813 0.0013245057902718351 0.038886528544033822 0.011113685817771855 -0.0022019259929191492 0.0073347804082544814 0.0078971632620991137 -0.01435663250614431 0.0047972953756500909 -0.021334192548304411 0.0021777027607751969 -0.012285819468031554 -0.00714697776642206 0.01927068440708991 -0.018577220895580143 -0.011388576062957189 0.0060117139651974403 0.0052804523773314922 -0.0062464933135007806 0.0076537391978670488
leaf_count=4456 40526 3926 2266 24408 1938 256 1339 3060 6014 1444 2421 1814 92213 94 2363 7138 5576 14584 971 5379 1165 638 665 1383 1069 343 2405 2145 2908 2706 2053
internal_value=0 0.0151537 0.0282126 -0.109566 0.0205985 -0.191516 0.0185316 0.0197997 0.0652657 0.118245 0.0154511 0.0465015 0.0104554 -0.0918291 0.025839 0.00762144 0.0616817 0.0544383 0.0227919 -0.0186864 -0.0241881 -0.130144 0.029177 -0.0204259 0.0348972 0.0762539 -0.026388 0.0262184 -0.0215431 0.0384217 -0.00250028
internal_count=239666 210546 151920 29120 123764 4712 121826 120487 10518 4504 109969 15241 94728 2515 13427 11064 28156 25890 11306 58626 52582 1803 6044 50779 4940 3557 45839 2488 43434 10335 4759
shrinkage=0.1


Tree=30
num_leaves=32
num_cat=0
split_feature=0 0 0 4 9 11 4 9 4 11 2 4 8 0 2 11 4 11 10 9 4 10 8 9 4 0 11 2 2 2 10
split_gain=326.912 67.3331 48.182 27.3243 26.1223 23.5719 20.9717 33.1931 41.2851 27.8498 21.6193 21.5259 21.7853 23.4937 20.1313 18.0862 17.9847 17.3416 16.5904 19.645 18.133 16.021 16.8588 40.4981 25.0947 60.7589 38.7315 33.3893 30.5382 24.9541 24.8966
threshold=0.56388357281684887 0.40794268250465399 0.6968088448047639 0.63538044691085827 0.08693194761872293 0.037735750898718841 0.46719682216644293 0.21160186827182773 0.51473402976989757 0.026380580849945549 0.42638660967350012 0.53545206785202037 0.49036496877670294 0.57951602339744579 0.090499706566333785 0.0089126224629580992 0.27827993035316473 0.024311670102179054 0.0043859127908945092 0.026954679749906067 0.095805879682302489 0.029488909058272842 0.63900440931320202 0.30527332425117498 0.58298450708389293 0.65011602640151989 0.043990220874547965 0.48026309907436376 0.45690670609474188 0.53112921118736278 0.063353598117828383
decision_type=2 2 2 2 2 2 2 2 2 2 2 2 2 2 2 2 2 2 2 2 2 2 2 2 2 2 2 2 2 2 2
left_child=1 14 6 -4 15 -5 -2 9 17 -8 11 12 -10 -14 -1 -3 -17 -9 -16 20 -20 -12 23 24 25 26 -23 -28 -26 30 -30
right_child=2 4 3 5 -6 -7 7 8 10 -11 21 -13 13 -15 18 16 -18 -19 19 -21 -22 22 -24 -25 28 -27 27 -29 29 -31 -32
leaf_value=-0.026256285985140376 0.0088224123923047078 -0.0058299642680359138 0.015893646700561516 -0.0034926344509892135 -0.0040010499323706447 0.0043074889447128175 -0.00063253223659038942 0.02540503978688859 -0.014989690648486126 -0.0096860545060836363 -0.0054176353434764101 -0.023759301938209534 -0.0085130124421624008 0.013393234518563125 0.0028661432101914331 0.0062955136501695961 -0.061110065380895612 0.0073607526278929476 -0.016803462333834614 -0.010268578147444304 -0.044670734625017527 0.0031783094184970224 -0.0022706681400029185 0.0075970799287764755 -0.046703787852110795 0.014090800565809539 -0.0086415153435245081 0.0093843942273315918 -0.00047710296784357907 0.0083577953701143484 -0.0087899318965502619
leaf_count=932 3151 191 1920 4156 30589 57155 9441 588 1052 5308 3785 626 944 1017 803 50 190 5654 2769 14056 255 23963 12098 10289 145 4208 5610 1258 30579 2800 4084
internal_value=0 -0.0720823 0.0189233 0.0414662 -0.0434551 0.0377875 0.00766407 0.0056078 0.0116479 -0.0389079 0.00683765 -0.0688591 -0.0338019 0.0284785 -0.119279 -0.287927 -0.470672 0.0906053 -0.111812 -0.118416 -0.191534 0.00962517 0.0121663 0.0172532 0.00893704 0.0281922 0.012808 -0.0533974 -0.00900277 -0.00722996 -0.0145652
internal_count=239666 49835 189831 63231 31020 61311 126600 123449 108700 14749 102458 3639 3013 1961 18815 431 240 6242 17883 17080 3024 98819 95034 82936 72647 35039 30831 6868 37608 37463 34663
shrinkage=0.1


Tree=31
num_leaves=32
num_cat=0
split_feature=2 0 0 4 9 10 9 2 2 0 2 9 11 9 1 0 0 11 0 10 0 4 9 4 11 2 4 8 10 8 9
split_gain=268.746 56.4388 39.8454 27.072 24.579 22.7921 18.56 29.1294 23.6535 23.6385 21.2049 17.1285 23.1711 19.0147 26.8109 16.9607 15.6513 17.8369 15.332 17.663 14.9018 24.1587 19.4296 27.7441 20.0369 19.5399 44.8848 28.6233 16.7344 15.5208 32.2853
threshold=0.41267395019531256 0.38852769136428839 0.71180081367492687 0.65513044595718395 0.075426816940307631 0.1060532256960869 0.35160928964614874 0.54484012722969066 0.57727691531181347 0.73519596457481395 0.56173554062843334 0.018630208447575573 0.0064712758176028737 0.046778203919529922 0.23460444808006289 0.32333756983280187 0.72171378135681163 0.080472704023122801 0.58080774545669567 0.057172127068042762 0.51814529299736034 0.47207038104534155 0.21860801428556445 0.52311137318611156 0.02592423185706139 0.43701429665088659 0.54695051908493053 0.4948448538780213 0.01699598599225283 0.67393779754638683 0.32173165678977972
decision_type=2 2 2 2 2 2 2 2 2 2 2 2 2 2 2 2 2 2 2 2 2 2 2 2 2 2 2 2 2 2 2
left_child=1 11 5 -4 -3 20 7 16 9 -9 -11 -1 15 14 -14 -13 -5 -18 19 -6 -2 28 24 -24 -23 26 27 -25 -22 30 -27
right_child=2 4 3 6 18 -7 -8 8 -10 10 -12 12 13 -15 -16 -17 17 -19 -20 -21 21 22 23 25 -26 29 -28 -29 -30 -31 -32
leaf_value=-0.020110810507729556 -0.014291329418642362 -0.030639776505151952 0.01763664891859992 0.0014604123393691102 -0.0047686674868675297 0.011846458728289613 0.0062119434108472878 -0.0079113583225285163 0.011475176147000679 0.0087712707384480938 -0.010029120125877977 -0.0070402129508170142 -0.016025446562471821 -0.010332710138536037 -0.044391852140784116 0.0093670313902472734 0.010869319850283984 -0.0010263867451753032 0.0036688831188076859 0.010988377984533426 -0.0058192026349418993 0.00032398648247737729 0.0074110030369836342 -0.012521556752410228 -0.0067470534841281658 0.00075060604609939233 -0.023430015429393339 0.0038708672387581045 0.012698893222976524 -0.003452062336848047 0.0064557067550730061
leaf_count=1884 651 345 1489 6690 31203 1894 19339 5494 1110 2045 849 4947 2101 6861 396 722 5572 1629 2536 728 596 9919 6609 1497 6724 90124 1061 3693 2693 7119 11146
internal_value=0 -0.0638321 0.017567 0.0438182 -0.0408088 0.00949083 0.0391991 0.0202475 -0.0224311 -0.0405847 0.0325588 -0.111226 -0.0999576 -0.130521 -0.205241 -0.049506 0.0494291 0.0817829 -0.0381504 -0.0440942 0.00803562 0.00873166 0.00671138 0.0111092 -0.0253281 0.00747721 -0.0468867 -0.00857352 0.0934323 0.0106125 0.0137852
internal_count=239666 51723 187943 44217 34812 143726 42728 23389 9498 8388 2894 16911 15027 9358 2497 5669 13891 7201 34467 31931 141832 141181 137892 121249 16643 114640 6251 5190 3289 108389 101270
shrinkage=0.1


Tree=32
num_leaves=32
num_cat=0
split_feature=2 0 9 7 9 11 4 9 10 8 3 0 7 9 2 11 7 0 2 4 0 3 0 9 7 11 2 4 10 2 10
split_gain=218.48 49.9147 30.8157 21.2294 33.979 22.7061 17.4128 16.9624 16.2052 14.7349 14.6122 14.06 17.9404 30.1639 26.9575 24.1379 21.1892 19.0343 14.9719 13.984 24.4041 22.1013 20.0612 16.7175 49.1485 31.1948 26.1986 23.0761 20.232 19.2732 18.4497
threshold=0.41765178740024572 0.44727417826652532 0.33497387170791632 0.65992999076843273 0.3573253750801087 0.056161029264330871 0.52715370059013378 0.018630208447575573 0.0043859127908945092 0.70021018385887157 0.36369463801383978 0.7292349934577943 0.63860663771629345 0.31558582186698919 0.53968277573585521 0.047218924388289459 0.6152004897594453 0.71180081367492687 0.53046387434005748 0.50067389011383068 0.53036159276962291 0.46934753656387335 0.54791435599327099 0.24655750393867495 0.52236858010292064 0.031751537695527084 0.44085140526294714 0.55921691656112682 0.037186151370406158 0.4841515719890595 0.064638648182153716
decision_type=2 2 2 2 2 2 2 2 2 2 2 2 2 2 2 2 2 2 2 2 2 2 2 2 2 2 2 2 2 2 2
left_child=1 7 11 5 9 -4 -3 -1 -9 -5 -10 12 13 19 17 -15 -17 18 -14 20 21 -2 -21 25 29 28 27 -26 -24 -25 -28
right_child=2 6 3 4 -6 -7 -8 8 10 -11 -12 -13 14 15 -16 16 -18 -19 -20 22 -22 -23 23 24 26 -27 30 -29 -30 -31 -32
leaf_value=-0.018099729842931477 -0.0031678292426094755 -0.0026884116371122804 -0.00017083702470264479 0.00075044081422314193 0.004660108442301923 0.011182316674155784 -0.025407062702463352 0.012570448318713404 -0.0082074666498600859 -0.010008547533963312 -0.027695077146244314 0.0056505517813180616 0.00011056309002935416 -0.0038000820585581277 -0.0077513766508598009 0.014191414997627914 0.0035277093295957348 0.0049040490831280138 -0.013709626515265276 -0.029755543356391356 0.006989337814181428 -0.043531342014039479 -2.3750373506831808e-05 0.0052887083673670626 -0.0025230833784497925 -0.0067848787761832299 0.0011942628357690958 -0.033256781030628076 0.018777110292354512 0.015542739016013019 -0.0034652682076033352
leaf_count=1884 1087 31676 2340 2622 20307 7127 341 369 20851 2474 392 6314 2257 1769 5847 3972 3510 5146 1201 219 7098 155 21544 9452 564 8077 57816 431 588 2274 9962
internal_value=0 -0.0549914 0.0165772 0.0433427 0.0282799 0.0837611 -0.0293038 -0.0899948 -0.0820618 -0.0447282 -0.0856707 0.0103252 0.00828572 0.012042 -0.0251206 0.0670503 0.0918879 0.0104841 -0.0468934 0.00777531 0.0472656 -0.0820514 0.00480624 0.00540437 0.0129322 -0.0146553 0.00272924 -0.158359 0.00475748 0.0727725 0.00509406
internal_count=239666 55513 184153 34870 25403 9467 32017 23496 21612 5096 21243 149283 142969 128518 14451 9251 7482 8604 3458 119267 8340 1242 110927 110708 80499 30209 68773 995 22132 11726 67778
shrinkage=0.1


Tree=33
num_leaves=32
num_cat=0
split_feature=9 0 0 11 4 11 9 11 10 11 10 10 11 11 10 10 11 11 10 10 10 11 10 0 11 11 7 10 0 4 0
split_gain=180.836 32.9122 32.7659 27.7657 26.5113 21.3086 17.9059 14.6986 16.9335 41.7913 46.8543 34.4122 33.3608 25.332 43.9873 34.011 23.1518 18.8479 44.3982 17.974 17.912 14.4334 20.1671 28.2236 36.6816 23.0099 16.8654 15.6935 14.9024 22.4001 42.5207
threshold=0.18416389077901843 0.6903701424598695 0.33497916162014013 0.049598652869462974 0.6321096420288087 0.036163330078125007 0.058735683560371406 0.0071222539991140374 0.01458957511931658 0.013312095310539009 0.017689841799438003 0.01699598599225283 0.011700555216521026 0.015703071840107444 0.020500535145401958 0.019465945661067966 0.0099032144062221068 0.017870139330625538 0.02350973337888718 0.015778522007167343 0.013360269833356144 0.017234115861356262 0.029334255494177345 0.55452489852905285 0.020389244891703132 0.024311670102179054 0.4767258912324906 0.02350973337888718 0.61009463667869579 0.58529895544052135 0.65011602640151989
decision_type=2 2 2 2 2 2 2 2 2 2 2 2 2 2 2 2 2 2 2 2 2 2 2 2 2 2 2 2 2 2 2
left_child=2 21 -1 6 -3 -6 -4 -8 16 11 -11 12 -10 15 -15 -12 20 -16 -19 -14 -9 -2 23 27 -25 -24 -26 -23 -27 30 -30
right_child=1 4 3 -5 5 -7 7 8 9 10 13 -13 19 14 17 -17 -18 18 -20 -21 -22 22 25 24 26 28 -28 -29 29 -31 -32
leaf_value=-0.010183954728336322 0.016611994372097007 0.011915511862588263 -0.02434423143229961 0.020323837077532225 -0.0045109161054951693 0.0030503556853286162 0.0084653188127181474 -0.0089705419503505052 0.0082045875206431806 -0.037843585445200667 -0.0098210384086042397 0.01960360366336877 -0.033335263150025676 -0.03977565890958789 0.0060688552787558879 0.018735014105724541 -0.022157990779260103 -0.03457154071508136 -0.005032956297843603 -0.0054667637844520956 0.013015213484583218 -0.048129918497579638 0.0073844903616678698 0.017277891078370543 0.00080718721930882914 -0.0015533627183809669 -0.0088828337370043704 -0.012023022055956895 0.001453328610873044 -0.0002222703225371786 0.011326091277657616
leaf_count=12203 542 3205 446 459 3959 63614 895 2469 1727 434 709 1242 338 371 1422 1013 1205 524 17595 734 436 128 4845 941 3850 30057 3367 2021 23690 49878 5347
internal_value=0 0.0130661 -0.0577473 -0.040943 0.0302885 0.0260735 -0.0444943 -0.0416425 -0.045383 -0.035991 -0.0531112 0.0575033 -0.00396785 -0.0465849 -0.0566479 0.0697762 -0.105046 -0.0501717 -0.0588721 -0.142537 -0.0567079 0.00328832 0.0025773 -0.0397802 -0.0129227 0.0064131 -0.0371357 -0.141736 0.00341502 0.0106321 0.0327134
internal_count=239666 195444 44222 32019 70778 67573 31560 31114 30219 26109 22068 4041 2799 21634 19912 1722 4110 19541 18119 1072 2905 124666 124124 10307 8158 113817 7217 2149 108972 78915 29037
shrinkage=0.1


Tree=34
num_leaves=32
num_cat=0
split_feature=9 0 4 2 0 4 9 4 1 9 7 11 11 2 11 0 8 2 9 2 0 2 11 11 0 2 2 11 9 0 7
split_gain=148.063 37.025 21.2546 21.6176 17.4641 18.9799 16.5051 19.6668 18.4694 14.7506 29.2413 16.6555 14.6334 16.6431 13.9971 16.3648 13.6599 24.8882 22.0527 21.9669 27.3625 21.1353 17.794 17.0177 14.6402 27.3776 13.7545 19.0124 15.6289 18.1083 13.0676
threshold=0.14947264641523364 0.67359486222267162 0.61688983440399181 0.48874984681606298 0.74206751585006725 0.73216775059700023 0.030842708423733715 0.095805879682302489 0.19803439825773242 0.29065084457397466 0.58985412120819103 0.10947782173752786 0.03364155441522599 0.50146865844726574 0.0040200792718678722 0.26431874930858618 0.64982011914253246 0.54041990637779247 0.34053871035575872 0.53890693187713634 0.71392378211021434 0.52976012229919445 0.075245521962642684 0.077388897538185134 0.72622209787368786 0.5524909794330598 0.51085504889488231 0.069153789430856719 0.31344199180603033 0.70531338453292858 0.54171437025070202
decision_type=2 2 2 2 2 2 2 2 2 2 2 2 2 2 2 2 2 2 2 2 2 2 2 2 2 2 2 2 2 2 2
left_child=6 9 -3 -4 5 12 7 8 -1 11 -11 30 13 -5 15 -8 17 26 19 20 21 22 -18 -22 -21 -26 27 -14 29 -28 -2
right_child=1 2 3 4 -6 -7 14 -9 -10 10 -12 -13 16 -15 -16 -17 18 -19 -20 24 23 -23 -24 -25 25 -27 28 -29 -30 -31 -32
leaf_value=-0.010949316615748154 -0.00018849458030236946 0.008234712660919543 -0.013109804608471613 0.011237138835625956 0.0062805623974979052 -0.007525639207482524 -0.0074839404273940174 -0.030259512318161264 0.018409941195776418 0.0065920133170922351 -0.0018770522437540579 0.01552788312619092 0.0081223544436318587 -0.0069058776177058356 -0.0059475744642715515 0.0227138209617373 0.0030451417861191848 0.011684755590552827 0.0040019510545198618 -0.0071008984486051726 0.0087485693109328067 -0.0097302933925424578 -0.012671292563176307 -0.0028905706150075296 0.0054969642263137967 -0.0088200628478762467 -0.0046557777682549959 -0.0049784765286245477 0.0088500719925195832 0.007101109314108252 -0.0029573301169052648
